{"learner":{"attributes":{"scikit_learn":"{\"_estimator_type\": \"classifier\"}"},"feature_names":[],"feature_types":[],"gradient_booster":{"model":{"gbtree_model_param":{"num_parallel_tree":"1","num_trees":"100"},"iteration_indptr":[0,1,2,3,4,5,6,7,8,9,10,11,12,13,14,15,16,17,18,19,20,21,22,23,24,25,26,27,28,29,30,31,32,33,34,35,36,37,38,39,40,41,42,43,44,45,46,47,48,49,50,51,52,53,54,55,56,57,58,59,60,61,62,63,64,65,66,67,68,69,70,71,72,73,74,75,76,77,78,79,80,81,82,83,84,85,86,87,88,89,90,91,92,93,94,95,96,97,98,99,100],"tree_info":[0,0,0,0,0,0,0,0,0,0,0,0,0,0,0,0,0,0,0,0,0,0,0,0,0,0,0,0,0,0,0,0,0,0,0,0,0,0,0,0,0,0,0,0,0,0,0,0,0,0,0,0,0,0,0,0,0,0,0,0,0,0,0,0,0,0,0,0,0,0,0,0,0,0,0,0,0,0,0,0,0,0,0,0,0,0,0,0,0,0,0,0,0,0,0,0,0,0,0,0],"trees":[{"base_weights":[-0E0,5.7737327E-1,-1.9988803E0,1.45516E0,-4.5198256E-1,-1.9996561E0,-1.7142858E-1,1.62225E0,-9.810915E-1,-1.9776798E0,1.1079189E0,-1.9996855E0,-0E0,-1.9574468E-1,1.8554217E0,-1.3564518E-1,1.7744721E0,-1.2985138E0,1.9734122E0,-1.9906482E0,-1.6281445E0,1.9546902E0,-1.9289012E0,-1.9999607E-1,-1.7898551E0,1.20000005E-1,-1.20000005E-1,1.9506173E-1,-1E-1,-1.7988647E0,1.3501918E0,1.905534E0,-2.8004375E-1,1.3126818E0,-1.697197E0,1.990669E0,-1.372549E0,-1.9909381E0,9.0909094E-1,-1.9629035E0,2.5528318E-1,-1.99739E-1,1.9789625E0,-1.8399919E0,-1.9953029E0,-1.8985915E0,1.0697675E0,-1.9427828E-1,1.9796644E-1,-1.8586716E-1,1.6390611E-1,1.9477709E-1,-1.5020879E-1,1.4573316E-1,-1.6822843E-1,-1.99602E-1,1.9991736E-1,1.7105833E-1,-1.9165497E-1,-1.5789475E-1,1.9970264E-1,4.6153847E-2,-1.8095239E-1,-1.8097107E-1,-1.9938941E-1,-1.6000001E-1,1.84E-1,2.5125628E-2,-1.9848125E-1,1.9082032E-1,-1.9946843E-1,1.9882469E-1,-1.9931331E-1,-1.7597914E-1,-1.9996E-1,-1.9960517E-1,1.5789475E-1,-4.6666667E-2,-1.976214E-1,1.7714286E-1,-1.3333334E-1],"categories":[],"categories_nodes":[],"categories_segments":[],"categories_sizes":[],"default_left":[0,0,0,0,0,0,0,0,0,0,0,0,0,0,0,0,0,0,0,0,0,0,0,0,0,0,0,0,0,0,0,0,0,0,0,0,0,0,0,0,0,0,0,0,0,0,0,0,0,0,0,0,0,0,0,0,0,0,0,0,0,0,0,0,0,0,0,0,0,0,0,0,0,0,0,0,0,0,0,0,0],"id":0,"left_children":[1,3,5,7,9,11,13,15,17,19,21,23,25,-1,27,29,31,33,35,37,39,41,43,-1,45,-1,-1,-1,-1,47,49,51,53,55,57,59,61,63,65,67,69,-1,71,73,75,77,79,-1,-1,-1,-1,-1,-1,-1,-1,-1,-1,-1,-1,-1,-1,-1,-1,-1,-1,-1,-1,-1,-1,-1,-1,-1,-1,-1,-1,-1,-1,-1,-1,-1,-1],"loss_changes":[1.0485339E6,6.369307E5,2.88375E2,1.5488056E5,7.721664E5,1.2E1,3.2038113E2,9.5276E4,2.2904488E4,7.401875E2,4.12538E5,8.125E0,7.2E0,0E0,1.3231293E1,7.012604E4,8.8233375E4,2.295898E4,1.395498E2,1.348125E2,3.7035527E3,1.2037625E4,2.0284375E2,0E0,8.785193E1,0E0,0E0,0E0,0E0,7.2847734E3,1.389559E4,4.4336375E4,4.7875355E4,6.639875E3,1.4303988E4,5.6657227E1,1.105365E1,8.10625E1,4.1483635E1,2.4241602E2,3.3035037E3,0E0,4.602E3,1.8807812E2,5.671875E1,2.8671326E1,2.0488152E1,0E0,0E0,0E0,0E0,0E0,0E0,0E0,0E0,0E0,0E0,0E0,0E0,0E0,0E0,0E0,0E0,0E0,0E0,0E0,0E0,0E0,0E0,0E0,0E0,0E0,0E0,0E0,0E0,0E0,0E0,0E0,0E0,0E0,0E0],"parents":[2147483647,0,0,1,1,2,2,3,3,4,4,5,5,6,6,7,7,8,8,9,9,10,10,11,11,12,12,14,14,15,15,16,16,17,17,18,18,19,19,20,20,21,21,22,22,24,24,29,29,30,30,31,31,32,32,33,33,34,34,35,35,36,36,37,37,38,38,39,39,40,40,42,42,43,43,44,44,45,45,46,46],"right_children":[2,4,6,8,10,12,14,16,18,20,22,24,26,-1,28,30,32,34,36,38,40,42,44,-1,46,-1,-1,-1,-1,48,50,52,54,56,58,60,62,64,66,68,70,-1,72,74,76,78,80,-1,-1,-1,-1,-1,-1,-1,-1,-1,-1,-1,-1,-1,-1,-1,-1,-1,-1,-1,-1,-1,-1,-1,-1,-1,-1,-1,-1,-1,-1,-1,-1,-1,-1],"split_conditions":[-2.6261482E-1,-4.3440932E-1,3.3956167E-1,3.0131027E-1,-5.094167E-1,2.800395E0,2.584639E-1,1.2379597E-3,1.3823552E0,-1.16407946E-1,-5.5198276E-1,1.6723766E0,-4.3626988E-1,-1.9574468E-1,-4.3626988E-1,-1.8162626E-1,-1.1846885E-1,-4.3878707E-1,-1.406922E-3,5.507143E0,1.010513E-3,1.5337908E0,-3.630365E-1,-1.9999607E-1,-5.501617E-2,1.20000005E-1,-1.20000005E-1,1.9506173E-1,-1E-1,-4.6345177E-1,1.2366305E-3,8.840752E-3,-1.8344563E-1,3.6402646E-1,-7.140615E-3,-9.277968E-2,-3.130835E-1,-4.2718607E-1,3.2920482E0,-4.2718607E-1,1.2556773E-2,-1.99739E-1,-5.4738373E-2,2.5195725E0,3.4371743E0,4.8063052E-1,-4.3626988E-1,-1.9427828E-1,1.9796644E-1,-1.8586716E-1,1.6390611E-1,1.9477709E-1,-1.5020879E-1,1.4573316E-1,-1.6822843E-1,-1.99602E-1,1.9991736E-1,1.7105833E-1,-1.9165497E-1,-1.5789475E-1,1.9970264E-1,4.6153847E-2,-1.8095239E-1,-1.8097107E-1,-1.9938941E-1,-1.6000001E-1,1.84E-1,2.5125628E-2,-1.9848125E-1,1.9082032E-1,-1.9946843E-1,1.9882469E-1,-1.9931331E-1,-1.7597914E-1,-1.9996E-1,-1.9960517E-1,1.5789475E-1,-4.6666667E-2,-1.976214E-1,1.7714286E-1,-1.3333334E-1],"split_indices":[11,0,14,6,11,9,10,30,13,29,36,12,0,0,0,33,24,0,3,10,0,42,17,0,19,0,0,0,0,35,30,2,33,6,5,28,1,0,37,0,0,0,19,0,23,46,0,0,0,0,0,0,0,0,0,0,0,0,0,0,0,0,0,0,0,0,0,0,0,0,0,0,0,0,0,0,0,0,0,0,0],"split_type":[0,0,0,0,0,0,0,0,0,0,0,0,0,0,0,0,0,0,0,0,0,0,0,0,0,0,0,0,0,0,0,0,0,0,0,0,0,0,0,0,0,0,0,0,0,0,0,0,0,0,0,0,0,0,0,0,0,0,0,0,0,0,0,0,0,0,0,0,0,0,0,0,0,0,0,0,0,0,0,0,0],"sum_hessian":[9.085275E5,7.0491475E5,2.0361275E5,3.804685E5,3.2444625E5,2.0352625E5,8.65E1,3.5604925E5,2.441925E4,1.6402125E5,1.60425E5,2.0352325E5,3E0,4.6E1,4.05E1,2.83745E4,3.2767475E5,2.205075E4,2.3685E3,1.58149E5,5.87225E3,1.254465E5,3.49785E4,2.0324825E5,2.75E2,1.5E0,1.5E0,3.95E1,1E0,1.3388E4,1.49865E4,3.0802525E5,1.96495E4,2.9205E3,1.913025E4,2.35675E3,1.175E1,1.581335E5,1.55E1,4.986E3,8.8625E2,7.6525E2,1.2468125E5,1.4967E4,2.00115E4,2.6525E2,9.75E0,1.289725E4,4.9075E2,1.23725E3,1.374925E4,3.042545E5,3.77075E3,8.776E3,1.08735E4,5.015E2,2.419E3,1.1565E3,1.797375E4,3.75E0,2.353E3,2.25E0,9.5E0,2.54775E3,1.5558575E5,4E0,1.15E1,4.875E1,4.93725E3,5.11E2,3.7525E2,1.24391E5,2.9025E2,9.9695E3,4.9975E3,2.000775E4,3.75E0,1.4E1,2.5125E2,7.75E0,2E0],"tree_param":{"num_deleted":"0","num_feature":"53","num_nodes":"81","size_leaf_vector":"1"}},{"base_weights":[-1.227515E-5,5.2475166E-1,-1.8177116E0,1.3221394E0,-4.1094875E-1,-1.8184171E0,-1.5694593E-1,1.4739444E0,-8.9149004E-1,-1.798258E0,1.007264E0,-1.818444E0,-0E0,-1.783087E-1,1.6880431E0,-1.231838E-1,1.6124053E0,-1.1798376E0,1.7944115E0,-1.8100616E0,-1.4801749E0,1.7773117E0,-1.752881E0,-1.8186952E-1,-1.6269886E0,1.1305224E-1,-1.1305224E-1,1.7770761E-1,-6.452577E-2,-1.2414342E0,1.7435808E0,1.734911E0,-2.0883928E-1,1.1936871E0,-1.5419022E0,1.8101896E0,-1.2539563E0,-1.8103257E0,8.2603616E-1,-1.7845802E0,2.3197709E-1,-1.8165469E-1,1.7993821E0,-1.6298238E0,-1.7946539E0,-1.7261046E0,9.7344154E-1,-1.7398888E-1,5.7489704E-2,1.8013589E-1,-1.5539896E-1,1.768447E-1,-1.7962937E-1,1.2886952E-1,-1.4287491E-1,-1.8154006E-1,1.8180393E-1,1.5492003E-1,-1.7416045E-1,-1.4617147E-1,1.8160485E-1,4.2974986E-2,-1.6584668E-1,-1.642674E-1,-1.8130653E-1,-1.4798169E-1,1.6842373E-1,2.2667205E-2,-1.8046746E-1,1.73399E-1,-1.814283E-1,1.8078254E-1,-1.8129846E-1,-1.5393893E-1,-1.8181522E-1,-1.7951797E-1,1.4617147E-1,-4.2333417E-2,-1.7973801E-1,1.6261801E-1,-1.2482635E-1],"categories":[],"categories_nodes":[],"categories_segments":[],"categories_sizes":[],"default_left":[0,0,0,0,0,0,0,0,0,0,0,0,0,0,0,0,0,0,0,0,0,0,0,0,0,0,0,0,0,0,0,0,0,0,0,0,0,0,0,0,0,0,0,0,0,0,0,0,0,0,0,0,0,0,0,0,0,0,0,0,0,0,0,0,0,0,0,0,0,0,0,0,0,0,0,0,0,0,0,0,0],"id":1,"left_children":[1,3,5,7,9,11,13,15,17,19,21,23,25,-1,27,29,31,33,35,37,39,41,43,-1,45,-1,-1,-1,-1,47,49,51,53,55,57,59,61,63,65,67,69,-1,71,73,75,77,79,-1,-1,-1,-1,-1,-1,-1,-1,-1,-1,-1,-1,-1,-1,-1,-1,-1,-1,-1,-1,-1,-1,-1,-1,-1,-1,-1,-1,-1,-1,-1,-1,-1,-1],"loss_changes":[8.583552E5,5.209993E5,2.35875E2,1.2668994E5,6.32115E5,9.875E0,2.6308725E2,7.802056E4,1.8740807E4,6.070625E2,3.3767203E5,6.75E0,6.376634E0,0E0,9.689842E0,5.8759793E4,7.243706E4,1.8779332E4,1.15112305E2,1.1053125E2,3.03196E3,9.8558125E3,1.7521094E2,0E0,7.216968E1,0E0,0E0,0E0,0E0,1.593827E4,2.0118984E3,3.60275E4,3.738478E4,5.4375806E3,1.1705957E4,4.740381E1,9.342958E0,6.896875E1,3.4901997E1,2.0000293E2,2.7045095E3,0E0,3.7687812E3,1.4696484E2,4.6914062E1,2.3734863E1,1.751891E1,0E0,0E0,0E0,0E0,0E0,0E0,0E0,0E0,0E0,0E0,0E0,0E0,0E0,0E0,0E0,0E0,0E0,0E0,0E0,0E0,0E0,0E0,0E0,0E0,0E0,0E0,0E0,0E0,0E0,0E0,0E0,0E0,0E0,0E0],"parents":[2147483647,0,0,1,1,2,2,3,3,4,4,5,5,6,6,7,7,8,8,9,9,10,10,11,11,12,12,14,14,15,15,16,16,17,17,18,18,19,19,20,20,21,21,22,22,24,24,29,29,30,30,31,31,32,32,33,33,34,34,35,35,36,36,37,37,38,38,39,39,40,40,42,42,43,43,44,44,45,45,46,46],"right_children":[2,4,6,8,10,12,14,16,18,20,22,24,26,-1,28,30,32,34,36,38,40,42,44,-1,46,-1,-1,-1,-1,48,50,52,54,56,58,60,62,64,66,68,70,-1,72,74,76,78,80,-1,-1,-1,-1,-1,-1,-1,-1,-1,-1,-1,-1,-1,-1,-1,-1,-1,-1,-1,-1,-1,-1,-1,-1,-1,-1,-1,-1,-1,-1,-1,-1,-1,-1],"split_conditions":[-2.6261482E-1,-4.3440932E-1,3.3956167E-1,3.0131027E-1,-5.094167E-1,2.800395E0,2.584639E-1,1.2379597E-3,1.3823552E0,-1.16407946E-1,-5.5198276E-1,1.6723766E0,-4.3626988E-1,-1.783087E-1,-4.3960893E-1,-4.6351108E-1,-1.1875271E-1,-4.3878707E-1,-1.406922E-3,5.507143E0,1.010513E-3,1.5337908E0,-4.3961105E-1,-1.8186952E-1,-5.501617E-2,1.1305224E-1,-1.1305224E-1,1.7770761E-1,-6.452577E-2,3.1292267E-2,-6.4174766E-3,1.0173991E-2,-1.8344563E-1,3.6402646E-1,-3.9476693E-1,-9.277968E-2,-3.130835E-1,-4.2718607E-1,3.2920482E0,-4.2718607E-1,1.2556773E-2,-1.8165469E-1,-5.4738373E-2,2.5195725E0,3.4371743E0,4.8063052E-1,-4.3626988E-1,-1.7398888E-1,5.7489704E-2,1.8013589E-1,-1.5539896E-1,1.768447E-1,-1.7962937E-1,1.2886952E-1,-1.4287491E-1,-1.8154006E-1,1.8180393E-1,1.5492003E-1,-1.7416045E-1,-1.4617147E-1,1.8160485E-1,4.2974986E-2,-1.6584668E-1,-1.642674E-1,-1.8130653E-1,-1.4798169E-1,1.6842373E-1,2.2667205E-2,-1.8046746E-1,1.73399E-1,-1.814283E-1,1.8078254E-1,-1.8129846E-1,-1.5393893E-1,-1.8181522E-1,-1.7951797E-1,1.4617147E-1,-4.2333417E-2,-1.7973801E-1,1.6261801E-1,-1.2482635E-1],"split_indices":[11,0,14,6,11,9,10,30,13,29,36,12,0,0,1,37,24,0,3,10,0,42,1,0,19,0,0,0,0,33,3,2,33,6,13,28,1,0,37,0,0,0,19,0,23,46,0,0,0,0,0,0,0,0,0,0,0,0,0,0,0,0,0,0,0,0,0,0,0,0,0,0,0,0,0,0,0,0,0,0,0],"split_type":[0,0,0,0,0,0,0,0,0,0,0,0,0,0,0,0,0,0,0,0,0,0,0,0,0,0,0,0,0,0,0,0,0,0,0,0,0,0,0,0,0,0,0,0,0,0,0,0,0,0,0,0,0,0,0,0,0,0,0,0,0,0,0,0,0,0,0,0,0,0,0,0,0,0,0,0,0,0,0,0,0],"sum_hessian":[8.998705E5,6.9828006E5,2.0159048E5,3.7700362E5,3.212764E5,2.015048E5,8.568631E1,3.5280922E5,2.4194406E4,1.6240753E5,1.5886886E5,2.0150181E5,2.9892259E0,4.5562164E1,4.012414E1,2.8146229E4,3.24663E5,2.1849312E4,2.3450933E3,1.5659194E5,5.8156025E3,1.2421477E5,3.465409E4,2.0122933E5,2.7248584E2,1.4946129E0,1.4946129E0,3.8879E1,1.2451411E0,1.760226E4,1.0543969E4,3.0420103E5,2.046198E4,2.891528E3,1.8957785E4,2.3334216E3,1.1671458E1,1.5657656E5,1.5377719E1,4.937684E3,8.779184E2,7.576679E2,1.2345711E5,8.792518E3,2.5861574E4,2.6280518E2,9.680656E0,1.3811908E4,3.7903513E3,1.0362852E4,1.8111768E2,3.013397E5,2.8613298E3,9.185728E3,1.1276253E4,4.965379E2,2.39499E3,1.1500415E3,1.7807744E4,3.7267241E0,2.329695E3,2.2488022E0,9.422656E0,2.5270032E3,1.5404955E5,3.9745088E0,1.1403211E1,4.8742306E1,4.888942E3,5.0637637E2,3.7154202E2,1.2316972E5,2.8738638E2,5.946304E3,2.8462139E3,2.5857848E4,3.7267241E0,1.399238E1,2.488128E2,7.689519E0,1.9911375E0],"tree_param":{"num_deleted":"0","num_feature":"53","num_nodes":"81","size_leaf_vector":"1"}},{"base_weights":[-4.4774588E-5,4.8468283E-1,-1.6816326E0,1.2200687E0,-3.8000688E-1,-1.6822859E0,-1.4569455E-1,1.3601059E0,-8.230323E-1,-1.6632011E0,9.312783E-1,-1.6823113E0,-4.515924E-8,-1.6507837E-1,1.5604585E0,1.4799343E0,-2.201437E-1,-1.0890392E0,1.6597999E0,-1.6741489E0,-1.3683307E0,1.6437306E0,-1.6186347E0,-1.6825476E-1,-1.5025167E0,1.0694325E-1,-1.0694325E-1,1.6454291E-1,-6.1030746E-2,-6.94454E-2,1.6024952E0,-8.5075605E-1,1.5535218E0,1.1042812E0,-1.4227942E0,1.6745169E0,-1.1582698E0,-1.6743942E0,7.6047736E-1,-1.6499035E0,2.1418968E-1,1.6752084E0,-5.5515206E-1,-1.5353932E0,-1.6810427E0,-1.9736283E-1,-1.683844E-1,-1.06475174E-1,1.6242431E-1,1.6384543E-1,-1.2781195E-1,-1.326865E-1,1.5776251E-1,-1.2852296E-1,1.6343525E-1,-1.6796087E-1,1.6819644E-1,1.4278486E-1,-1.6075872E-1,-1.365262E-1,1.6800246E-1,4.0042456E-2,-1.539927E-1,-1.674817E-1,-5.953713E-2,-1.3813399E-1,1.5628211E-1,2.0454733E-2,-1.6689077E-1,1.6004862E-1,-1.6786109E-1,-1.6638473E-1,1.6776668E-1,-1.6434222E-1,7.696281E-2,-1.4616917E-1,-1.683052E-1,-1.6816914E-1,1.365262E-1,8.466902E-2,-1.6172664E-1],"categories":[],"categories_nodes":[],"categories_segments":[],"categories_sizes":[],"default_left":[0,0,0,0,0,0,0,0,0,0,0,0,0,0,0,0,0,0,0,0,0,0,0,0,0,0,0,0,0,0,0,0,0,0,0,0,0,0,0,0,0,0,0,0,0,0,0,0,0,0,0,0,0,0,0,0,0,0,0,0,0,0,0,0,0,0,0,0,0,0,0,0,0,0,0,0,0,0,0,0,0],"id":2,"left_children":[1,3,5,7,9,11,13,15,17,19,21,23,25,-1,27,29,31,33,35,37,39,41,43,-1,45,-1,-1,-1,-1,47,49,51,53,55,57,59,61,63,65,67,69,71,73,75,77,79,-1,-1,-1,-1,-1,-1,-1,-1,-1,-1,-1,-1,-1,-1,-1,-1,-1,-1,-1,-1,-1,-1,-1,-1,-1,-1,-1,-1,-1,-1,-1,-1,-1,-1,-1],"loss_changes":[7.1534175E5,4.3318175E5,1.968125E2,1.0532994E5,5.268182E5,8.375E0,2.1978905E2,6.5239688E4,1.5598326E4,5.085625E2,2.813191E5,5.8125E0,5.6722603E0,0E0,8.411713E0,6.0812188E4,2.716349E4,1.56160625E4,9.673242E1,9.2375E1,2.5269922E3,8.378469E3,1.7310938E2,0E0,6.285199E1,0E0,0E0,0E0,0E0,3.957658E4,3.0742562E4,2.0715719E4,1.4637236E3,4.534263E3,9.754887E3,4.0367188E1,8.032202E0,6.859375E1,2.9751987E1,1.6999219E2,2.2524448E3,9.8221875E2,2.4650852E3,1.5535938E2,4.046875E1,5.1328835E1,0E0,0E0,0E0,0E0,0E0,0E0,0E0,0E0,0E0,0E0,0E0,0E0,0E0,0E0,0E0,0E0,0E0,0E0,0E0,0E0,0E0,0E0,0E0,0E0,0E0,0E0,0E0,0E0,0E0,0E0,0E0,0E0,0E0,0E0,0E0],"parents":[2147483647,0,0,1,1,2,2,3,3,4,4,5,5,6,6,7,7,8,8,9,9,10,10,11,11,12,12,14,14,15,15,16,16,17,17,18,18,19,19,20,20,21,21,22,22,24,24,29,29,30,30,31,31,32,32,33,33,34,34,35,35,36,36,37,37,38,38,39,39,40,40,41,41,42,42,43,43,44,44,45,45],"right_children":[2,4,6,8,10,12,14,16,18,20,22,24,26,-1,28,30,32,34,36,38,40,42,44,-1,46,-1,-1,-1,-1,48,50,52,54,56,58,60,62,64,66,68,70,72,74,76,78,80,-1,-1,-1,-1,-1,-1,-1,-1,-1,-1,-1,-1,-1,-1,-1,-1,-1,-1,-1,-1,-1,-1,-1,-1,-1,-1,-1,-1,-1,-1,-1,-1,-1,-1,-1],"split_conditions":[-2.6261482E-1,-4.3440932E-1,3.3956167E-1,3.0131027E-1,-5.094167E-1,2.800395E0,2.584639E-1,-1.1875271E-1,1.3823552E0,-1.16407946E-1,-5.5198276E-1,1.6723766E0,-4.3626988E-1,-1.6507837E-1,-4.3960893E-1,1.2379597E-3,9.0649503E-1,-4.3878707E-1,-1.406922E-3,5.507143E0,1.010513E-3,-4.3959984E-1,-3.630365E-1,-1.6825476E-1,-5.2392356E-2,1.0694325E-1,-1.0694325E-1,1.6454291E-1,-6.1030746E-2,-4.6351108E-1,8.840752E-3,-1.833773E-1,1.2385295E-3,3.6402646E-1,-7.140615E-3,-9.277968E-2,-3.130835E-1,4.618134E0,3.2920482E0,-4.2718607E-1,1.2556773E-2,1.5337908E0,-3.2964242E-1,2.5195725E0,3.4371743E0,-4.3626988E-1,-1.683844E-1,-1.06475174E-1,1.6242431E-1,1.6384543E-1,-1.2781195E-1,-1.326865E-1,1.5776251E-1,-1.2852296E-1,1.6343525E-1,-1.6796087E-1,1.6819644E-1,1.4278486E-1,-1.6075872E-1,-1.365262E-1,1.6800246E-1,4.0042456E-2,-1.539927E-1,-1.674817E-1,-5.953713E-2,-1.3813399E-1,1.5628211E-1,2.0454733E-2,-1.6689077E-1,1.6004862E-1,-1.6786109E-1,-1.6638473E-1,1.6776668E-1,-1.6434222E-1,7.696281E-2,-1.4616917E-1,-1.683052E-1,-1.6816914E-1,1.365262E-1,8.466902E-2,-1.6172664E-1],"split_indices":[11,0,14,6,11,9,10,24,13,29,36,12,0,0,1,30,16,0,3,10,0,1,17,0,4,0,0,0,0,37,2,33,30,6,5,28,1,37,37,0,0,42,17,0,23,0,0,0,0,0,0,0,0,0,0,0,0,0,0,0,0,0,0,0,0,0,0,0,0,0,0,0,0,0,0,0,0,0,0,0,0],"split_type":[0,0,0,0,0,0,0,0,0,0,0,0,0,0,0,0,0,0,0,0,0,0,0,0,0,0,0,0,0,0,0,0,0,0,0,0,0,0,0,0,0,0,0,0,0,0,0,0,0,0,0,0,0,0,0,0,0,0,0,0,0,0,0,0,0,0,0,0,0,0,0,0,0,0,0,0,0,0,0,0,0],"sum_hessian":[8.7759725E5,6.8122956E5,1.9636772E5,3.6814E5,3.1308953E5,1.9628414E5,8.358741E1,3.4452603E5,2.3613975E4,1.5823958E5,1.5484997E5,1.9628117E5,2.959631E0,4.4427757E1,3.9159653E1,3.2024247E5,2.428356E4,2.1329344E4,2.284632E3,1.5257031E5,5.6692627E3,1.21033305E5,3.3816668E4,1.9601519E5,2.6598352E2,1.4798155E0,1.4798156E0,3.7917454E1,1.2422012E0,2.3475266E4,2.967672E5,1.7914666E4,6.3688936E3,2.8166968E3,1.8512646E4,2.2731665E3,1.1465527E1,1.5255527E5,1.5056808E1,4.81288E3,8.5638293E2,1.1932535E5,1.7079468E3,1.4500767E4,1.93159E4,3.270054E1,2.3328297E2,1.4786349E4,8.688917E3,2.9310872E5,3.6584822E3,1.4978443E4,2.9362231E3,1.7591475E2,6.192979E3,4.8371896E2,2.3329778E3,1.1266133E3,1.7386033E4,3.6646407E0,2.269502E3,2.2455375E0,9.219989E0,1.5249497E5,6.0289078E1,3.906627E0,1.1150182E1,4.872217E1,4.7641577E3,4.94421E2,3.6196194E2,8.728712E1,1.1923807E5,9.375417E2,7.704051E2,9.680033E3,4.820733E3,1.9312236E4,3.6646407E0,1.907697E1,1.3623569E1],"tree_param":{"num_deleted":"0","num_feature":"53","num_nodes":"81","size_leaf_vector":"1"}},{"base_weights":[-5.0391773E-5,4.5301923E-1,-1.5759742E0,1.1384358E0,-3.5587355E-1,-1.5765876E0,-1.3692494E-1,1.2743235E0,-6.988486E-1,-1.5580825E0,8.719488E-1,-1.5766119E0,4.5674692E-8,-1.5471178E-1,1.4596034E0,-1.0542823E-1,1.3967454E0,-1.0460901E0,1.5631104E0,-1.5683818E0,-1.2808921E0,1.5396894E0,-1.5127251E0,-1.5768403E-1,-1.4034978E0,1.0152151E-1,-1.0152151E-1,1.5421222E-1,-5.7787854E-2,-1.4526155E0,1.0833414E0,1.5007803E0,-1.9767916E-1,1.0348417E0,-1.3505074E0,1.573297E0,-1.1288295E0,-1.5686127E0,7.071986E-1,-1.5447062E0,2.001417E-1,-5.254858E-1,1.5693123E0,-1.4304029E0,-1.5747732E0,-1.5861078E-1,-1.5754412E-1,-1.5729843E-1,1.5835665E-1,-1.5923591E-1,1.3281576E-1,1.5291315E-1,-1.6685076E-1,-1.2863998E-1,1.286084E-1,-1.5740862E-1,1.576295E-1,1.3184139E-1,-1.5201385E-1,-1.277373E-1,1.5755634E-1,-1.3763866E-1,6.6956006E-2,-1.395966E-1,-1.5714563E-1,-1.2989463E-1,1.465422E-1,1.8461695E-2,-1.5631E-1,1.4946045E-1,-1.573151E-1,-1.5750878E-1,7.037602E-2,-1.560044E-1,1.5716614E-1,-1.3577467E-1,-1.5771997E-1,-1.5761153E-1,-1.3506434E-2,1.285731E-1,-1.5784512E-1],"categories":[],"categories_nodes":[],"categories_segments":[],"categories_sizes":[],"default_left":[0,0,0,0,0,0,0,0,0,0,0,0,0,0,0,0,0,0,0,0,0,0,0,0,0,0,0,0,0,0,0,0,0,0,0,0,0,0,0,0,0,0,0,0,0,0,0,0,0,0,0,0,0,0,0,0,0,0,0,0,0,0,0,0,0,0,0,0,0,0,0,0,0,0,0,0,0,0,0,0,0],"id":3,"left_children":[1,3,5,7,9,11,13,15,17,19,21,23,25,-1,27,29,31,33,35,37,39,41,43,-1,45,-1,-1,-1,-1,47,49,51,53,55,57,59,61,63,65,67,69,71,73,75,77,79,-1,-1,-1,-1,-1,-1,-1,-1,-1,-1,-1,-1,-1,-1,-1,-1,-1,-1,-1,-1,-1,-1,-1,-1,-1,-1,-1,-1,-1,-1,-1,-1,-1,-1,-1],"loss_changes":[6.04194E5,3.6439875E5,1.6659375E2,8.882641E4,4.4500284E5,7.25E0,1.8596895E2,5.5957125E4,1.9246928E4,4.32875E2,2.374964E5,5.25E0,5.0656457E0,0E0,7.4121323E0,4.324031E4,5.0473125E4,1.3457664E4,9.120508E1,7.834375E1,2.1346064E3,7.1291875E3,1.6440625E2,0E0,5.4958588E1,0E0,0E0,0E0,0E0,4.628002E3,9.397795E3,2.5668438E4,3.0110914E4,3.8327449E3,8.391871E3,2.3005371E1,6.654312E0,6.984375E1,2.5624172E1,1.4777637E2,1.9002261E3,2.1280232E3,8.4684375E2,1.4753711E2,3.571875E1,6.849982E1,0E0,0E0,0E0,0E0,0E0,0E0,0E0,0E0,0E0,0E0,0E0,0E0,0E0,0E0,0E0,0E0,0E0,0E0,0E0,0E0,0E0,0E0,0E0,0E0,0E0,0E0,0E0,0E0,0E0,0E0,0E0,0E0,0E0,0E0,0E0],"parents":[2147483647,0,0,1,1,2,2,3,3,4,4,5,5,6,6,7,7,8,8,9,9,10,10,11,11,12,12,14,14,15,15,16,16,17,17,18,18,19,19,20,20,21,21,22,22,24,24,29,29,30,30,31,31,32,32,33,33,34,34,35,35,36,36,37,37,38,38,39,39,40,40,41,41,42,42,43,43,44,44,45,45],"right_children":[2,4,6,8,10,12,14,16,18,20,22,24,26,-1,28,30,32,34,36,38,40,42,44,-1,46,-1,-1,-1,-1,48,50,52,54,56,58,60,62,64,66,68,70,72,74,76,78,80,-1,-1,-1,-1,-1,-1,-1,-1,-1,-1,-1,-1,-1,-1,-1,-1,-1,-1,-1,-1,-1,-1,-1,-1,-1,-1,-1,-1,-1,-1,-1,-1,-1,-1,-1],"split_conditions":[-2.6261482E-1,-4.3440932E-1,3.3956167E-1,2.9155442E-1,-5.094167E-1,2.800395E0,2.584639E-1,1.2379597E-3,1.3823552E0,-1.16407946E-1,-5.5198276E-1,1.6723766E0,-4.3626988E-1,-1.5471178E-1,-4.3960893E-1,-1.8162626E-1,-1.1846885E-1,-4.3878707E-1,-1.406922E-3,5.507143E0,1.010513E-3,-5.7163067E-2,-3.630365E-1,-1.5768403E-1,-6.4441324E-3,1.0152151E-1,-1.0152151E-1,1.5421222E-1,-5.7787854E-2,5.2290087E0,1.2366305E-3,6.6099656E-3,-6.0632326E-2,3.6402646E-1,-3.9476693E-1,-5.7277754E-3,-5.5057164E-2,-4.2718607E-1,3.2920482E0,-4.2718607E-1,1.2556773E-2,-3.2964242E-1,1.5337908E0,2.5195725E0,1.6585921E-3,-4.3626988E-1,-1.5754412E-1,-1.5729843E-1,1.5835665E-1,-1.5923591E-1,1.3281576E-1,1.5291315E-1,-1.6685076E-1,-1.2863998E-1,1.286084E-1,-1.5740862E-1,1.576295E-1,1.3184139E-1,-1.5201385E-1,-1.277373E-1,1.5755634E-1,-1.3763866E-1,6.6956006E-2,-1.395966E-1,-1.5714563E-1,-1.2989463E-1,1.465422E-1,1.8461695E-2,-1.5631E-1,1.4946045E-1,-1.573151E-1,-1.5750878E-1,7.037602E-2,-1.560044E-1,1.5716614E-1,-1.3577467E-1,-1.5771997E-1,-1.5761153E-1,-1.3506434E-2,1.285731E-1,-1.5784512E-1],"split_indices":[11,0,14,6,11,9,10,30,13,29,36,12,0,0,1,33,24,0,3,10,0,14,17,0,5,0,0,0,0,39,30,3,24,6,13,5,19,0,37,0,0,17,42,0,30,0,0,0,0,0,0,0,0,0,0,0,0,0,0,0,0,0,0,0,0,0,0,0,0,0,0,0,0,0,0,0,0,0,0,0,0],"split_type":[0,0,0,0,0,0,0,0,0,0,0,0,0,0,0,0,0,0,0,0,0,0,0,0,0,0,0,0,0,0,0,0,0,0,0,0,0,0,0,0,0,0,0,0,0,0,0,0,0,0,0,0,0,0,0,0,0,0,0,0,0,0,0,0,0,0,0,0,0,0,0,0,0,0,0,0,0,0,0,0,0],"sum_hessian":[8.462043E5,6.572493E5,1.8895494E5,3.55779E5,3.0147034E5,1.8887434E5,8.059799E1,3.3127766E5,2.450137E4,1.5232384E5,1.491465E5,1.8887142E5,2.9149456E0,4.2812878E1,3.7785114E1,2.6997977E4,3.0427966E5,2.1241105E4,3.2602617E3,1.4686233E5,5.4615054E3,1.1651976E5,3.2626738E4,1.886145E5,2.569234E2,1.4574728E0,1.4574728E0,3.6548027E1,1.2370864E0,1.2655622E4,1.4342355E4,2.856418E5,1.8637844E4,2.7104749E3,1.853063E4,3.2483853E3,1.18766575E1,1.4684773E5,1.4594355E1,4.635711E3,8.257945E2,1.6474915E3,1.14872266E5,1.403279E4,1.8593947E4,3.1412943E1,2.2551047E2,1.2173488E4,4.821338E2,1.2018054E3,1.314055E4,2.8310975E5,2.5320737E3,1.0750056E4,7.8877886E3,4.6551923E2,2.2449556E3,1.1069812E3,1.742365E4,2.133551E0,3.2462517E3,1.064586E1,1.2307984E0,2.3873826E3,1.4446036E5,3.807401E0,1.0786954E1,4.8693275E1,4.5870176E3,4.7743506E2,3.483594E2,8.8853076E2,7.589607E2,8.566265E1,1.147866E5,9.39369E3,4.6391E3,1.8576535E4,1.7413189E1,1.5618937E1,1.5794007E1],"tree_param":{"num_deleted":"0","num_feature":"53","num_nodes":"81","size_leaf_vector":"1"}},{"base_weights":[-1.1186795E-4,4.2744708E-1,-1.4918556E0,1.0722002E0,-3.3656794E-1,-1.4924375E0,-1.2992448E-1,1.2001224E0,-6.584426E-1,-1.4741646E0,8.2442605E-1,-1.4924612E0,4.6343832E-8,-1.463843E-1,1.3777962E0,-9.8797165E-2,1.3164778E0,-9.8510534E-1,1.4787658E0,-1.4839629E0,-1.2107239E0,1.4566158E0,-1.426838E0,-1.4926833E-1,-1.3246119E0,9.6668385E-2,-9.666838E-2,1.4590158E-1,-5.4769665E-2,-1.3648143E0,1.0046573E0,1.413051E0,-2.4228354E-1,9.79539E-1,-1.2709074E0,1.4881494E0,-1.1605266E0,-1.4872339E0,-1.3208283E0,-1.4603693E0,1.8874057E-1,-4.9022412E-1,1.4849696E0,-1.3084567E0,-1.4729133E0,-1.4817704E-1,-1.4906502E-1,-1.4779226E-1,1.5619852E-1,-1.480254E-1,1.2314691E-1,1.4451198E-1,-1.1227234E-1,-1.4278735E-1,1.186224E-1,-1.4900048E-1,1.4921544E-1,1.2350615E-1,-1.4313065E-1,-1.2056694E-1,1.4903612E-1,-1.4261056E-1,5.83196E-2,-1.4874585E-1,6.628408E-2,2.1395765E-1,-1.4948036E-1,1.6664974E-2,-1.4784972E-1,1.408284E-1,-1.489095E-1,-1.488811E-1,6.443218E-2,-1.4766574E-1,1.4871942E-1,-1.22744344E-1,-1.492254E-1,-1.4734416E-1,1.3785204E-1,1.18130565E-1,-1.482715E-1],"categories":[],"categories_nodes":[],"categories_segments":[],"categories_sizes":[],"default_left":[0,0,0,0,0,0,0,0,0,0,0,0,0,0,0,0,0,0,0,0,0,0,0,0,0,0,0,0,0,0,0,0,0,0,0,0,0,0,0,0,0,0,0,0,0,0,0,0,0,0,0,0,0,0,0,0,0,0,0,0,0,0,0,0,0,0,0,0,0,0,0,0,0,0,0,0,0,0,0,0,0],"id":4,"left_children":[1,3,5,7,9,11,13,15,17,19,21,23,25,-1,27,29,31,33,35,37,39,41,43,-1,45,-1,-1,-1,-1,47,49,51,53,55,57,59,61,63,65,67,69,71,73,75,77,79,-1,-1,-1,-1,-1,-1,-1,-1,-1,-1,-1,-1,-1,-1,-1,-1,-1,-1,-1,-1,-1,-1,-1,-1,-1,-1,-1,-1,-1,-1,-1,-1,-1,-1,-1],"loss_changes":[5.1565312E5,3.09538E5,1.425625E2,7.544647E4,3.798332E5,6.34375E0,1.589235E2,4.7960188E4,1.6377448E4,3.7315625E2,2.025724E5,4.78125E0,4.5400834E0,0E0,6.6070023E0,3.6448727E4,4.3842156E4,1.1426137E4,7.875635E1,7.278125E1,1.8220098E3,6.134953E3,1.6828516E2,0E0,4.7971497E1,0E0,0E0,0E0,0E0,4.0246426E3,7.8587803E3,2.2303375E4,2.8779812E4,3.2741436E3,7.1418965E3,2.0265137E1,6.1947174E0,6.728125E1,1.6658662E3,1.3075977E2,1.6190865E3,1.8090927E3,7.2378125E2,1.2848535E2,3.5859375E1,5.7861656E1,0E0,0E0,0E0,0E0,0E0,0E0,0E0,0E0,0E0,0E0,0E0,0E0,0E0,0E0,0E0,0E0,0E0,0E0,0E0,0E0,0E0,0E0,0E0,0E0,0E0,0E0,0E0,0E0,0E0,0E0,0E0,0E0,0E0,0E0,0E0],"parents":[2147483647,0,0,1,1,2,2,3,3,4,4,5,5,6,6,7,7,8,8,9,9,10,10,11,11,12,12,14,14,15,15,16,16,17,17,18,18,19,19,20,20,21,21,22,22,24,24,29,29,30,30,31,31,32,32,33,33,34,34,35,35,36,36,37,37,38,38,39,39,40,40,41,41,42,42,43,43,44,44,45,45],"right_children":[2,4,6,8,10,12,14,16,18,20,22,24,26,-1,28,30,32,34,36,38,40,42,44,-1,46,-1,-1,-1,-1,48,50,52,54,56,58,60,62,64,66,68,70,72,74,76,78,80,-1,-1,-1,-1,-1,-1,-1,-1,-1,-1,-1,-1,-1,-1,-1,-1,-1,-1,-1,-1,-1,-1,-1,-1,-1,-1,-1,-1,-1,-1,-1,-1,-1,-1,-1],"split_conditions":[-2.6261482E-1,-4.3440932E-1,3.3956167E-1,2.9155442E-1,-5.094167E-1,2.800395E0,2.584639E-1,1.2379597E-3,1.3823552E0,-1.16407946E-1,-5.5198276E-1,1.6723766E0,-4.3626988E-1,-1.463843E-1,-4.3960893E-1,-1.8162626E-1,-1.1734178E-1,-4.3878707E-1,1.5994109E-3,-5.674877E-1,1.010513E-3,-5.7163067E-2,-4.39611E-1,-1.4926833E-1,-6.4441324E-3,9.6668385E-2,-9.666838E-2,1.4590158E-1,-5.4769665E-2,-4.6345177E-1,1.2366305E-3,8.840752E-3,-6.0632326E-2,3.6402646E-1,-7.140615E-3,-5.7277754E-3,-1.1897701E-1,5.507143E0,-4.6369857E-1,-4.2718607E-1,1.2556773E-2,-3.2964242E-1,1.5337908E0,2.5195725E0,3.4371743E0,-4.3626988E-1,-1.4906502E-1,-1.4779226E-1,1.5619852E-1,-1.480254E-1,1.2314691E-1,1.4451198E-1,-1.1227234E-1,-1.4278735E-1,1.186224E-1,-1.4900048E-1,1.4921544E-1,1.2350615E-1,-1.4313065E-1,-1.2056694E-1,1.4903612E-1,-1.4261056E-1,5.83196E-2,-1.4874585E-1,6.628408E-2,2.1395765E-1,-1.4948036E-1,1.6664974E-2,-1.4784972E-1,1.408284E-1,-1.489095E-1,-1.488811E-1,6.443218E-2,-1.4766574E-1,1.4871942E-1,-1.22744344E-1,-1.492254E-1,-1.4734416E-1,1.3785204E-1,1.18130565E-1,-1.482715E-1],"split_indices":[11,0,14,6,11,9,10,30,13,29,36,12,0,0,1,33,24,0,3,11,0,14,1,0,5,0,0,0,0,35,30,2,24,6,5,5,24,10,37,0,0,17,42,0,23,0,0,0,0,0,0,0,0,0,0,0,0,0,0,0,0,0,0,0,0,0,0,0,0,0,0,0,0,0,0,0,0,0,0,0,0],"split_type":[0,0,0,0,0,0,0,0,0,0,0,0,0,0,0,0,0,0,0,0,0,0,0,0,0,0,0,0,0,0,0,0,0,0,0,0,0,0,0,0,0,0,0,0,0,0,0,0,0,0,0,0,0,0,0,0,0,0,0,0,0,0,0,0,0,0,0,0,0,0,0,0,0,0,0,0,0,0,0,0,0],"sum_hessian":[8.0847456E5,6.28373E5,1.801016E5,3.4078434E5,2.8758866E5,1.8002458E5,7.701733E1,3.1732894E5,2.345539E4,1.4525788E5,1.4233078E5,1.8002172E5,2.8584192E0,4.0879395E1,3.613793E1,2.6088877E4,2.9124006E5,2.0346117E4,3.1092734E3,1.4004453E5,5.2133394E3,1.1112541E5,3.120538E4,1.79776E5,2.457187E2,1.4292096E0,1.4292095E0,3.4907745E1,1.230186E0,1.2149387E4,1.393949E4,2.7424903E5,1.6991035E4,2.5836062E3,1.776251E4,3.0986926E3,1.0580789E1,1.3728373E5,2.760793E3,4.4240967E3,7.892427E2,1.5949622E3,1.0953044E5,8.750939E3,2.2454441E4,3.062478E1,2.1509392E2,1.1697811E4,4.5157587E2,1.1654535E3,1.2774037E4,2.7082447E5,3.4245586E3,9.284972E3,7.706063E3,4.4377878E2,2.1398274E3,1.068125E3,1.6694385E4,2.0957434E0,3.096597E3,9.340348E0,1.2404404E0,1.372697E5,1.4034595E1,1.3161644E2,2.6291765E3,4.8658485E1,4.3754385E3,4.5713348E2,3.3210916E2,8.481439E2,7.4681824E2,8.1708824E1,1.09448734E5,6.079102E3,2.6718372E3,2.2450766E4,3.6759174E0,1.5398966E1,1.5225815E1],"tree_param":{"num_deleted":"0","num_feature":"53","num_nodes":"81","size_leaf_vector":"1"}},{"base_weights":[-1.842722E-4,4.063697E-1,-1.4235612E0,1.017283E0,-3.2081082E-1,-1.4241179E0,-1.24229565E-1,1.1385999E0,-6.2492937E-1,-1.4058446E0,7.8555673E-1,-1.4241413E0,9.429027E-8,-1.3955958E-1,1.3100141E0,-9.331964E-2,1.2500427E0,-9.3441355E-1,1.4101498E0,-1.4152521E0,-1.1532158E0,1.3889216E0,-1.3555458E0,-1.4243591E-1,-1.2600151E0,9.229013E-2,-9.2290126E-2,1.3908045E-1,-5.1952865E-2,-9.4972825E-1,1.36568E0,1.349576E0,-1.4370792E-1,9.346219E-1,-1.2045709E0,1.4196316E0,-9.949671E-1,-1.2330366E0,-1.4182976E0,-1.3913279E0,1.7927568E-1,1.4165014E0,-4.50864E-1,-1.2669752E0,-1.4231172E0,1.2792043E-1,-1.3897368E0,-1.385325E-1,4.9130496E-2,1.4247732E-1,-1.7138758E-1,1.3758144E-1,-1.5205307E-1,9.815392E-2,-1.0972543E-1,-1.4216796E-1,1.4238308E-1,1.1562543E-1,-1.3576041E-1,-1.14272475E-1,1.4218117E-1,1.9139973E-2,-1.3698229E-1,-1.4465158E-1,2.2383478E-2,-1.4187731E-1,-2.775299E-2,1.5044324E-2,-1.4094542E-1,1.3362665E-1,-1.4207694E-1,-1.408241E-1,1.418585E-1,-1.3840407E-1,5.9031177E-2,-1.19042456E-1,-1.4249182E-1,-1.4245375E-1,1.4178731E-3,1.2150377E-1,-1.3201566E-1,-1.4247678E-1,-4.9204037E-2],"categories":[],"categories_nodes":[],"categories_segments":[],"categories_sizes":[],"default_left":[0,0,0,0,0,0,0,0,0,0,0,0,0,0,0,0,0,0,0,0,0,0,0,0,0,0,0,0,0,0,0,0,0,0,0,0,0,0,0,0,0,0,0,0,0,0,0,0,0,0,0,0,0,0,0,0,0,0,0,0,0,0,0,0,0,0,0,0,0,0,0,0,0,0,0,0,0,0,0,0,0,0,0],"id":5,"left_children":[1,3,5,7,9,11,13,15,17,19,21,23,25,-1,27,29,31,33,35,37,39,41,43,-1,45,-1,-1,-1,-1,47,49,51,53,55,57,59,61,63,65,67,69,71,73,75,77,79,81,-1,-1,-1,-1,-1,-1,-1,-1,-1,-1,-1,-1,-1,-1,-1,-1,-1,-1,-1,-1,-1,-1,-1,-1,-1,-1,-1,-1,-1,-1,-1,-1,-1,-1,-1,-1],"loss_changes":[4.4375697E5,2.649809E5,1.2309375E2,6.4580906E4,3.2691188E5,5.6875E0,1.3689227E2,4.1441062E4,1.4046249E4,3.25125E2,1.7419353E5,4.3125E0,4.082286E0,0E0,5.9434395E0,3.1291352E4,3.8400844E4,9.775002E3,6.855029E1,7.18125E1,1.5680884E3,5.3383125E3,1.7561328E2,0E0,4.2355774E1,0E0,0E0,0E0,0E0,9.906092E3,1.6880938E3,1.9458406E4,1.9799117E4,2.8205667E3,6.1118438E3,1.8007324E1,5.6648674E0,6.803943E2,7.03125E1,1.17375E2,1.3903986E3,6.119844E2,1.511083E3,1.5351953E2,3.433203E1,3.456736E1,6.038849E0,0E0,0E0,0E0,0E0,0E0,0E0,0E0,0E0,0E0,0E0,0E0,0E0,0E0,0E0,0E0,0E0,0E0,0E0,0E0,0E0,0E0,0E0,0E0,0E0,0E0,0E0,0E0,0E0,0E0,0E0,0E0,0E0,0E0,0E0,0E0,0E0],"parents":[2147483647,0,0,1,1,2,2,3,3,4,4,5,5,6,6,7,7,8,8,9,9,10,10,11,11,12,12,14,14,15,15,16,16,17,17,18,18,19,19,20,20,21,21,22,22,24,24,29,29,30,30,31,31,32,32,33,33,34,34,35,35,36,36,37,37,38,38,39,39,40,40,41,41,42,42,43,43,44,44,45,45,46,46],"right_children":[2,4,6,8,10,12,14,16,18,20,22,24,26,-1,28,30,32,34,36,38,40,42,44,-1,46,-1,-1,-1,-1,48,50,52,54,56,58,60,62,64,66,68,70,72,74,76,78,80,82,-1,-1,-1,-1,-1,-1,-1,-1,-1,-1,-1,-1,-1,-1,-1,-1,-1,-1,-1,-1,-1,-1,-1,-1,-1,-1,-1,-1,-1,-1,-1,-1,-1,-1,-1,-1],"split_conditions":[-2.6261482E-1,-4.3440932E-1,3.3956167E-1,2.9155442E-1,-5.094167E-1,2.800395E0,2.584639E-1,1.2379597E-3,1.3823552E0,-1.16407946E-1,-5.5198276E-1,1.6723766E0,-4.3626988E-1,-1.3955958E-1,-4.3960893E-1,-4.6351108E-1,-1.1875271E-1,-4.3878707E-1,-1.406922E-3,-4.2718607E-1,1.010513E-3,-4.3959984E-1,-3.630365E-1,-1.4243591E-1,1.5827089E-3,9.229013E-2,-9.2290126E-2,1.3908045E-1,-5.1952865E-2,3.1292267E-2,-6.4174766E-3,6.6099656E-3,-1.8344563E-1,3.6402646E-1,-3.9476693E-1,-5.7277754E-3,1.176061E0,-1.6610973E-1,4.618134E0,-4.2718607E-1,1.2556773E-2,1.5337908E0,-3.2964242E-1,2.5195725E0,1.6585921E-3,-4.3626988E-1,5.2290087E0,-1.385325E-1,4.9130496E-2,1.4247732E-1,-1.7138758E-1,1.3758144E-1,-1.5205307E-1,9.815392E-2,-1.0972543E-1,-1.4216796E-1,1.4238308E-1,1.1562543E-1,-1.3576041E-1,-1.14272475E-1,1.4218117E-1,1.9139973E-2,-1.3698229E-1,-1.4465158E-1,2.2383478E-2,-1.4187731E-1,-2.775299E-2,1.5044324E-2,-1.4094542E-1,1.3362665E-1,-1.4207694E-1,-1.408241E-1,1.418585E-1,-1.3840407E-1,5.9031177E-2,-1.19042456E-1,-1.4249182E-1,-1.4245375E-1,1.4178731E-3,1.2150377E-1,-1.3201566E-1,-1.4247678E-1,-4.9204037E-2],"split_indices":[11,0,14,6,11,9,10,30,13,29,36,12,0,0,1,37,24,0,3,0,0,1,17,0,31,0,0,0,0,33,3,3,33,6,13,5,36,33,37,0,0,42,17,0,30,0,39,0,0,0,0,0,0,0,0,0,0,0,0,0,0,0,0,0,0,0,0,0,0,0,0,0,0,0,0,0,0,0,0,0,0,0,0],"split_type":[0,0,0,0,0,0,0,0,0,0,0,0,0,0,0,0,0,0,0,0,0,0,0,0,0,0,0,0,0,0,0,0,0,0,0,0,0,0,0,0,0,0,0,0,0,0,0,0,0,0,0,0,0,0,0,0,0,0,0,0,0,0,0,0,0,0,0,0,0,0,0,0,0,0,0,0,0,0,0,0,0,0,0],"sum_hessian":[7.668421E5,5.9647406E5,1.7036802E5,3.2415072E5,2.7232338E5,1.7029494E5,7.307063E1,3.0185197E5,2.2298738E4,1.3748712E5,1.3483627E5,1.7029214E5,2.7928395E0,3.8749023E1,3.432161E1,2.504106E4,2.768109E5,1.9355756E4,2.9429817E3,1.3254666E5,4.940464E3,1.0519309E5,2.9643168E4,1.7005888E5,2.3326315E2,1.3964198E0,1.3964198E0,3.309977E1,1.2218398E0,1.5779251E4,9.26181E3,2.5836038E5,1.8450535E4,2.4441157E3,1.691164E4,2.931833E3,1.1148602E1,2.1856382E3,1.30361016E5,4.191425E3,7.490389E2,1.0363968E5,1.5534098E3,1.2836807E4,1.6806361E4,1.9939335E1,2.133238E2,1.2116656E4,3.6625952E3,9.08796E3,1.7385039E2,2.5602038E5,2.3399988E3,8.46328E3,9.987254E3,4.1987222E2,2.0242435E3,1.0291102E3,1.588253E4,2.047587E0,2.9297854E3,2.7943318E0,8.354269E0,1.9063087E3,2.793293E2,1.3030647E5,5.4549274E1,4.861999E1,4.142805E3,4.3480017E2,3.142387E2,7.5893616E1,1.0356379E5,8.1901776E2,7.34392E2,8.651978E3,4.184829E3,1.678978E4,1.6582737E1,1.1481066E1,8.458269E0,2.0474681E2,8.576996E0],"tree_param":{"num_deleted":"0","num_feature":"53","num_nodes":"83","size_leaf_vector":"1"}},{"base_weights":[-2.4460666E-4,3.886056E-1,-1.3672377E0,9.704857E-1,-3.0771756E-1,-1.367774E0,-1.1952426E-1,5.296494E-1,1.3817887E0,-1.3492478E0,7.532069E-1,-1.3677973E0,4.806091E-8,-1.3387267E-1,1.252825E0,8.5225594E-1,-1.2257348E0,1.3839262E0,-1.660003E0,-1.3583468E0,-1.1052471E0,1.3328217E0,-1.2952917E0,-1.3680142E-1,-1.2049184E0,8.831209E-2,-8.831208E-2,1.3338745E-1,-4.9317457E-2,1.05423E0,-2.519304E-1,2.6836905E-1,-1.4637893E0,1.3782871E0,2.2735457E0,-2.4944322E0,-1.2134619E0,-1.170911E0,-1.3615141E0,-1.3338164E0,1.7126203E-1,1.359629E0,-4.3411E-1,-1.203587E0,-1.3659493E0,-1.2565203E-1,-1.3652623E-1,-6.8298355E-3,1.3210565E-1,-1.0562854E-1,9.452527E-2,-1.39708E-1,1.3674752E-1,1.6992265E-1,-1.5176305E-1,-1.8041739E-1,1.378561E-1,1.5139687E-1,2.443422E-1,-3.1016108E-1,-1.10307194E-1,1.8001491E-1,-1.3589488E-1,-1.3856821E-1,1.9989137E-2,-1.3625365E-1,-7.8527294E-2,1.5900372E-1,-1.3429861E-1,1.2749612E-1,-1.364346E-1,-1.3521366E-1,1.361664E-1,-1.3635525E-1,5.409763E-2,-1.1249117E-1,-1.3684344E-1,-1.366676E-1,1.3814421E-1,1.03818916E-1,-1.3474222E-1],"categories":[],"categories_nodes":[],"categories_segments":[],"categories_sizes":[],"default_left":[0,0,0,0,0,0,0,0,0,0,0,0,0,0,0,0,0,0,0,0,0,0,0,0,0,0,0,0,0,0,0,0,0,0,0,0,0,0,0,0,0,0,0,0,0,0,0,0,0,0,0,0,0,0,0,0,0,0,0,0,0,0,0,0,0,0,0,0,0,0,0,0,0,0,0,0,0,0,0,0,0],"id":6,"left_children":[1,3,5,7,9,11,13,15,17,19,21,23,25,-1,27,29,31,33,35,37,39,41,43,-1,45,-1,-1,-1,-1,47,49,51,53,55,57,59,61,63,65,67,69,71,73,75,77,79,-1,-1,-1,-1,-1,-1,-1,-1,-1,-1,-1,-1,-1,-1,-1,-1,-1,-1,-1,-1,-1,-1,-1,-1,-1,-1,-1,-1,-1,-1,-1,-1,-1,-1,-1],"loss_changes":[3.8445234E5,2.2814938E5,1.0703125E2,5.561853E4,2.8324822E5,5.09375E0,1.1867725E2,8.384797E4,1.0339688E3,2.856875E2,1.507776E5,4E0,3.6815834E0,0E0,5.3863297E0,2.7894242E4,8.1763047E3,7.92375E2,3.8660767E1,7.24375E1,1.3585962E3,4.688953E3,1.7982812E2,0E0,3.8135468E1,0E0,0E0,0E0,0E0,3.1669906E4,1.8626064E4,5.7862656E3,3.3792734E3,1.398125E2,1.24987305E2,2.8726913E1,3.525357E1,6.1240796E2,7.1171875E1,1.0800342E2,1.2015409E3,5.398906E2,1.342056E3,1.5663867E2,3.345703E1,4.3679325E1,0E0,0E0,0E0,0E0,0E0,0E0,0E0,0E0,0E0,0E0,0E0,0E0,0E0,0E0,0E0,0E0,0E0,0E0,0E0,0E0,0E0,0E0,0E0,0E0,0E0,0E0,0E0,0E0,0E0,0E0,0E0,0E0,0E0,0E0,0E0],"parents":[2147483647,0,0,1,1,2,2,3,3,4,4,5,5,6,6,7,7,8,8,9,9,10,10,11,11,12,12,14,14,15,15,16,16,17,17,18,18,19,19,20,20,21,21,22,22,24,24,29,29,30,30,31,31,32,32,33,33,34,34,35,35,36,36,37,37,38,38,39,39,40,40,41,41,42,42,43,43,44,44,45,45],"right_children":[2,4,6,8,10,12,14,16,18,20,22,24,26,-1,28,30,32,34,36,38,40,42,44,-1,46,-1,-1,-1,-1,48,50,52,54,56,58,60,62,64,66,68,70,72,74,76,78,80,-1,-1,-1,-1,-1,-1,-1,-1,-1,-1,-1,-1,-1,-1,-1,-1,-1,-1,-1,-1,-1,-1,-1,-1,-1,-1,-1,-1,-1,-1,-1,-1,-1,-1,-1],"split_conditions":[-2.6261482E-1,-4.3440932E-1,3.3956167E-1,1.0679946E0,-5.094167E-1,2.800395E0,2.584639E-1,-4.245834E-1,-4.0481103E-4,-1.16407946E-1,-5.5198276E-1,1.6723766E0,-4.3626988E-1,-1.3387267E-1,-4.3960893E-1,-1.1875271E-1,-4.3878707E-1,-1.1846885E-1,8.840752E-3,-4.2718607E-1,1.010513E-3,-4.3959078E-1,-3.630365E-1,-1.3680142E-1,-6.4441324E-3,8.831209E-2,-8.831208E-2,1.3338745E-1,-4.9317457E-2,1.2379597E-3,-6.0632326E-2,3.6402646E-1,-2.4016644E-1,6.5293485E-1,-5.7284378E-2,2.6997626E-1,2.6015218E-3,-1.6610973E-1,5.245671E0,-2.878173E-1,1.2556773E-2,1.5337908E0,-3.2964242E-1,2.5195725E0,3.4371743E0,-4.3626988E-1,-1.3652623E-1,-6.8298355E-3,1.3210565E-1,-1.0562854E-1,9.452527E-2,-1.39708E-1,1.3674752E-1,1.6992265E-1,-1.5176305E-1,-1.8041739E-1,1.378561E-1,1.5139687E-1,2.443422E-1,-3.1016108E-1,-1.10307194E-1,1.8001491E-1,-1.3589488E-1,-1.3856821E-1,1.9989137E-2,-1.3625365E-1,-7.8527294E-2,1.5900372E-1,-1.3429861E-1,1.2749612E-1,-1.364346E-1,-1.3521366E-1,1.361664E-1,-1.3635525E-1,5.409763E-2,-1.1249117E-1,-1.3684344E-1,-1.366676E-1,1.3814421E-1,1.03818916E-1,-1.3474222E-1],"split_indices":[11,0,14,13,11,9,10,10,3,29,36,12,0,0,1,24,0,24,2,0,0,1,17,0,5,0,0,0,0,30,24,6,9,12,14,9,3,33,35,16,0,42,17,0,23,0,0,0,0,0,0,0,0,0,0,0,0,0,0,0,0,0,0,0,0,0,0,0,0,0,0,0,0,0,0,0,0,0,0,0,0],"split_type":[0,0,0,0,0,0,0,0,0,0,0,0,0,0,0,0,0,0,0,0,0,0,0,0,0,0,0,0,0,0,0,0,0,0,0,0,0,0,0,0,0,0,0,0,0,0,0,0,0,0,0,0,0,0,0,0,0,0,0,0,0,0,0,0,0,0,0,0,0,0,0,0,0,0,0,0,0,0,0,0,0],"sum_hessian":[7.23257E5,5.6308456E5,1.6017242E5,3.0674978E5,2.563348E5,1.601035E5,6.8927124E1,1.4806038E5,1.586894E5,1.29349555E5,1.2698525E5,1.6010078E5,2.720569E0,3.6513145E1,3.2413975E1,1.2507455E5,2.298583E4,1.5857853E5,1.108812E2,1.2469495E5,4.6545986E3,9.897968E4,2.800557E4,1.5988042E5,2.20359E2,1.3602844E0,1.3602844E0,3.1201632E1,1.212343E0,1.0573407E5,1.934047E4,3.158977E3,1.9826852E4,1.5758222E5,9.963095E2,3.7054035E1,7.382717E1,2.078188E3,1.22616766E5,3.9476882E3,7.0691034E2,9.7500664E4,1.4790155E3,1.2195451E4,1.5810119E4,2.8734201E1,1.9162479E2,2.0306443E4,8.5427625E4,1.1568217E4,7.7722544E3,1.2558091E3,1.9031681E3,3.3133432E2,1.9495518E4,1.2991303E1,1.5756923E5,1.8390706E2,8.1240247E2,2.494085E1,1.2113186E1,2.8762057E0,7.0950966E1,1.7966813E3,2.8150665E2,1.2239821E5,2.185536E2,1.1802953E1,3.9358853E3,4.1139502E2,2.9551532E2,7.261334E1,9.742805E4,7.570268E2,7.219887E2,8.260738E3,3.9347131E3,1.580644E4,3.6782765E0,1.4792926E1,1.3941277E1],"tree_param":{"num_deleted":"0","num_feature":"53","num_nodes":"81","size_leaf_vector":"1"}},{"base_weights":[-2.4070505E-4,3.729565E-1,-1.3201934E0,9.27749E-1,-2.9668862E-1,-1.3207132E0,-1.15585886E-1,5.0194883E-1,1.3319148E0,-1.3017417E0,7.258994E-1,-1.3207365E0,-0E0,-1.2906604E-1,1.2037969E0,8.0652386E-1,-1.1682378E0,1.3340162E0,-1.5270668E0,-1.310622E0,-1.0640974E0,1.2857158E0,-1.2434599E0,-1.3209523E-1,-1.1591992E0,8.46742E-2,-8.46742E-2,1.2856713E-1,-4.6846326E-2,1.0010843E0,-2.334997E-1,2.5892186E-1,-1.3927011E0,1.3293657E0,2.009164E0,-1.6798575E0,8.785703E-3,-1.1170094E0,-1.313932E0,-1.2844622E0,1.643569E-1,1.3122351E0,-3.998051E-1,-1.1079961E0,-1.297246E0,-1.1976467E-1,-1.3175514E-1,-6.147464E-3,1.2699364E-1,-9.793585E-2,8.754151E-2,-1.3452193E-1,1.3203935E-1,1.7245047E-1,-1.44211E-1,-1.7051876E-1,1.3296334E-1,-1.257293E-1,2.0366843E-1,-2.1044672E-1,-1.2710646E-1,1.530879E-1,-1.159752E-1,-1.3350256E-1,1.786994E-2,-1.3149998E-1,-7.320314E-2,2.0176798E-2,-1.3042553E-1,1.2218242E-1,-1.3171431E-1,-1.3043469E-1,1.3141693E-1,-1.2755813E-1,4.9573906E-2,-1.0181614E-1,-1.320454E-1,-1.298462E-1,1.4536559E-2,9.6551225E-2,-1.2905553E-1],"categories":[],"categories_nodes":[],"categories_segments":[],"categories_sizes":[],"default_left":[0,0,0,0,0,0,0,0,0,0,0,0,0,0,0,0,0,0,0,0,0,0,0,0,0,0,0,0,0,0,0,0,0,0,0,0,0,0,0,0,0,0,0,0,0,0,0,0,0,0,0,0,0,0,0,0,0,0,0,0,0,0,0,0,0,0,0,0,0,0,0,0,0,0,0,0,0,0,0,0,0],"id":7,"left_children":[1,3,5,7,9,11,13,15,17,19,21,23,25,-1,27,29,31,33,35,37,39,41,43,-1,45,-1,-1,-1,-1,47,49,51,53,55,57,59,61,63,65,67,69,71,73,75,77,79,-1,-1,-1,-1,-1,-1,-1,-1,-1,-1,-1,-1,-1,-1,-1,-1,-1,-1,-1,-1,-1,-1,-1,-1,-1,-1,-1,-1,-1,-1,-1,-1,-1,-1,-1],"loss_changes":[3.348418E5,1.96871E5,9.3640625E1,4.987397E4,2.467701E5,4.640625E0,1.0343353E2,7.179325E4,8.9528125E2,2.5415625E2,1.3121312E5,3.671875E0,3.329322E0,0E0,4.911442E0,2.4153102E4,6.9734395E3,4.6384375E2,2.5750244E1,7.3328125E1,1.1824556E3,4.1428906E3,1.905039E2,0E0,3.407309E1,0E0,0E0,0E0,0E0,2.872514E4,1.5559743E4,5.0404414E3,2.8994375E3,1.22125E2,9.375122E1,1.463974E1,2.1194166E1,5.5634155E2,7.034375E1,1.0919678E2,1.0436433E3,4.634375E2,1.1270802E3,1.4168457E2,3.3257812E1,3.7578777E1,0E0,0E0,0E0,0E0,0E0,0E0,0E0,0E0,0E0,0E0,0E0,0E0,0E0,0E0,0E0,0E0,0E0,0E0,0E0,0E0,0E0,0E0,0E0,0E0,0E0,0E0,0E0,0E0,0E0,0E0,0E0,0E0,0E0,0E0,0E0],"parents":[2147483647,0,0,1,1,2,2,3,3,4,4,5,5,6,6,7,7,8,8,9,9,10,10,11,11,12,12,14,14,15,15,16,16,17,17,18,18,19,19,20,20,21,21,22,22,24,24,29,29,30,30,31,31,32,32,33,33,34,34,35,35,36,36,37,37,38,38,39,39,40,40,41,41,42,42,43,43,44,44,45,45],"right_children":[2,4,6,8,10,12,14,16,18,20,22,24,26,-1,28,30,32,34,36,38,40,42,44,-1,46,-1,-1,-1,-1,48,50,52,54,56,58,60,62,64,66,68,70,72,74,76,78,80,-1,-1,-1,-1,-1,-1,-1,-1,-1,-1,-1,-1,-1,-1,-1,-1,-1,-1,-1,-1,-1,-1,-1,-1,-1,-1,-1,-1,-1,-1,-1,-1,-1,-1,-1],"split_conditions":[-2.6261482E-1,-4.3440932E-1,3.3956167E-1,1.0679946E0,-5.094167E-1,2.800395E0,2.584639E-1,-4.245834E-1,-4.0481103E-4,-1.16407946E-1,-5.5198276E-1,1.6723766E0,-4.3626988E-1,-1.2906604E-1,-4.3960893E-1,-1.1875271E-1,-4.3878707E-1,-1.1846885E-1,4.2027357E-1,-4.2718607E-1,1.010513E-3,-4.3959984E-1,-4.39611E-1,-1.3209523E-1,-6.4441324E-3,8.46742E-2,-8.46742E-2,1.2856713E-1,-4.6846326E-2,1.2379597E-3,-6.0632326E-2,3.6402646E-1,-9.8246075E-3,6.5293485E-1,-4.3926663E-3,1.08076E0,5.661119E-1,-1.6610973E-1,5.245671E0,-4.2718607E-1,1.2556773E-2,1.5337908E0,-3.2964242E-1,2.5195725E0,1.6585921E-3,-4.3626988E-1,-1.3175514E-1,-6.147464E-3,1.2699364E-1,-9.793585E-2,8.754151E-2,-1.3452193E-1,1.3203935E-1,1.7245047E-1,-1.44211E-1,-1.7051876E-1,1.3296334E-1,-1.257293E-1,2.0366843E-1,-2.1044672E-1,-1.2710646E-1,1.530879E-1,-1.159752E-1,-1.3350256E-1,1.786994E-2,-1.3149998E-1,-7.320314E-2,2.0176798E-2,-1.3042553E-1,1.2218242E-1,-1.3171431E-1,-1.3043469E-1,1.3141693E-1,-1.2755813E-1,4.9573906E-2,-1.0181614E-1,-1.320454E-1,-1.298462E-1,1.4536559E-2,9.6551225E-2,-1.2905553E-1],"split_indices":[11,0,14,13,11,9,10,10,3,29,36,12,0,0,1,24,0,24,8,0,0,1,1,0,5,0,0,0,0,30,24,6,2,12,5,20,6,33,35,0,0,42,17,0,30,0,0,0,0,0,0,0,0,0,0,0,0,0,0,0,0,0,0,0,0,0,0,0,0,0,0,0,0,0,0,0,0,0,0,0,0],"split_type":[0,0,0,0,0,0,0,0,0,0,0,0,0,0,0,0,0,0,0,0,0,0,0,0,0,0,0,0,0,0,0,0,0,0,0,0,0,0,0,0,0,0,0,0,0,0,0,0,0,0,0,0,0,0,0,0,0,0,0,0,0,0,0,0,0,0,0,0,0,0,0,0,0,0,0,0,0,0,0,0,0],"sum_hessian":[6.797381E5,5.299136E5,1.4982455E5,2.8980962E5,2.4010397E5,1.4975984E5,6.471312E1,1.4112875E5,1.4868088E5,1.2109005E5,1.1901393E5,1.4975719E5,2.643587E0,3.4239952E1,3.0473166E1,1.1936236E5,2.1766387E4,1.485722E5,1.08669556E2,1.1672382E5,4.3662275E3,9.267125E4,2.634268E4,1.4955022E5,2.069682E2,1.3217936E0,1.3217936E0,2.9271217E1,1.2019496E0,1.0055184E5,1.8810514E4,2.9581335E3,1.8808252E4,1.4755878E5,1.01342694E3,9.875172E1,9.917842E0,1.9676082E3,1.1475621E5,3.7020872E3,6.6414026E2,9.123599E4,1.4352532E3,7.492897E3,1.8849783E4,2.759422E1,1.7937398E2,2.0304611E4,8.0247234E4,1.1246326E4,7.5641885E3,1.1778496E3,1.7802838E3,2.929368E2,1.8515316E4,1.2456518E1,1.4754633E5,8.093532E0,1.00533344E3,4.640413E1,5.2347588E1,4.172639E0,5.745203E0,1.684195E3,2.8341318E2,1.1454476E5,2.1145546E2,4.8533924E1,3.6535532E3,3.876314E2,2.7650885E2,6.689172E1,9.11691E4,7.254208E2,7.098324E2,5.2702446E3,2.2226523E3,1.8834008E4,1.5774572E1,1.4411063E1,1.3183156E1],"tree_param":{"num_deleted":"0","num_feature":"53","num_nodes":"81","size_leaf_vector":"1"}},{"base_weights":[-2.317005E-4,3.5934263E-1,-1.2804822E0,8.901129E-1,-2.8727898E-1,-1.2809882E0,-1.1225157E-1,4.7855803E-1,1.2916198E0,-1.261436E0,7.025167E-1,-1.2810117E0,-0E0,-1.2495241E-1,1.1611549E0,7.6498914E-1,-1.066019E0,1.2924252E0,-1.4443448E0,-1.27013E0,-1.0292156E0,1.245655E0,-1.1980253E0,-1.2812275E-1,-1.1199728E0,8.132786E-2,-8.132786E-2,1.2443353E-1,-4.4524636E-2,-7.060866E-2,9.872649E-1,2.5095466E-1,-1.2642576E0,1.2884887E0,1.8348736E0,-1.6687435E0,1.1502496E-1,-1.0694019E0,-1.2736048E0,-1.2427839E0,1.5831025E-1,1.2718074E0,-3.880159E-1,-1.0946126E0,-1.2791911E0,-1.1470419E-1,-1.2771776E-1,-1.2612797E-1,9.055365E-2,1.22561894E-1,-2.310628E-2,-1.3016583E-1,1.2806407E-1,1.2483251E-1,-1.3601191E-1,-4.7716092E-2,1.2888142E-1,-1.06599465E-1,1.8519291E-1,-2.1918646E-1,-1.2707154E-1,-1.2923478E-1,1.5989887E-2,-1.2741606E-1,-8.549797E-3,1.8211272E-2,-1.2631114E-1,1.1749963E-1,-1.2772231E-1,-1.2643425E-1,1.2737152E-1,-1.2738343E-1,4.541491E-2,-1.00809634E-1,-1.2817466E-1,-1.2808202E-1,1.3094644E-2,9.001474E-2,-1.24165826E-1],"categories":[],"categories_nodes":[],"categories_segments":[],"categories_sizes":[],"default_left":[0,0,0,0,0,0,0,0,0,0,0,0,0,0,0,0,0,0,0,0,0,0,0,0,0,0,0,0,0,0,0,0,0,0,0,0,0,0,0,0,0,0,0,0,0,0,0,0,0,0,0,0,0,0,0,0,0,0,0,0,0,0,0,0,0,0,0,0,0,0,0,0,0,0,0,0,0,0,0],"id":8,"left_children":[1,3,5,7,9,11,13,15,17,19,21,23,25,-1,27,29,31,33,35,37,39,41,43,-1,45,-1,-1,-1,-1,47,49,51,53,55,57,59,-1,61,63,65,67,69,71,73,75,77,-1,-1,-1,-1,-1,-1,-1,-1,-1,-1,-1,-1,-1,-1,-1,-1,-1,-1,-1,-1,-1,-1,-1,-1,-1,-1,-1,-1,-1,-1,-1,-1,-1],"loss_changes":[2.9297628E5,1.7053122E5,8.2390625E1,4.5091062E4,2.1597808E5,4.203125E0,9.0547554E1,5.9619215E4,3.0625E2,2.2660938E2,1.14690516E5,3.40625E0,3.0184238E0,0E0,4.5014954E0,2.1113617E4,5.504008E3,2.9246875E2,2.5861588E1,7.453125E1,1.0347437E3,3.6923594E3,2.058789E2,0E0,3.0609055E1,0E0,0E0,0E0,0E0,2.7763316E4,2.6075188E4,4.41232E3,4.4149766E3,7.940625E1,5.1077393E1,5.1804047E0,0E0,5.0935254E2,7.053125E1,1.0037451E2,9.102813E2,4.1307812E2,1.01684265E3,1.7463379E2,3.19375E1,3.2474247E1,0E0,0E0,0E0,0E0,0E0,0E0,0E0,0E0,0E0,0E0,0E0,0E0,0E0,0E0,0E0,0E0,0E0,0E0,0E0,0E0,0E0,0E0,0E0,0E0,0E0,0E0,0E0,0E0,0E0,0E0,0E0,0E0,0E0],"parents":[2147483647,0,0,1,1,2,2,3,3,4,4,5,5,6,6,7,7,8,8,9,9,10,10,11,11,12,12,14,14,15,15,16,16,17,17,18,18,19,19,20,20,21,21,22,22,24,24,29,29,30,30,31,31,32,32,33,33,34,34,35,35,37,37,38,38,39,39,40,40,41,41,42,42,43,43,44,44,45,45],"right_children":[2,4,6,8,10,12,14,16,18,20,22,24,26,-1,28,30,32,34,36,38,40,42,44,-1,46,-1,-1,-1,-1,48,50,52,54,56,58,60,-1,62,64,66,68,70,72,74,76,78,-1,-1,-1,-1,-1,-1,-1,-1,-1,-1,-1,-1,-1,-1,-1,-1,-1,-1,-1,-1,-1,-1,-1,-1,-1,-1,-1,-1,-1,-1,-1,-1,-1],"split_conditions":[-2.6261482E-1,-4.3440932E-1,3.3956167E-1,1.1896695E0,-5.094167E-1,2.800395E0,2.584639E-1,-4.245834E-1,-8.201566E-4,-1.16407946E-1,-5.5198276E-1,1.6723766E0,-4.3626988E-1,-1.2495241E-1,-4.3960893E-1,1.2383396E-3,-4.3878707E-1,-1.1846885E-1,-5.5051405E-2,-4.2718607E-1,1.010513E-3,-4.3959078E-1,-3.630365E-1,-1.2812275E-1,-6.4441324E-3,8.132786E-2,-8.132786E-2,1.2443353E-1,-4.4524636E-2,-1.8162626E-1,-1.1875271E-1,3.6402646E-1,-1.9388644E-1,9.0526015E-1,-4.3926663E-3,8.840752E-3,1.1502496E-1,-1.6610973E-1,4.618134E0,-4.2718607E-1,1.2556773E-2,1.5337908E0,-3.2964242E-1,2.5195725E0,1.6585921E-3,-4.3626988E-1,-1.2771776E-1,-1.2612797E-1,9.055365E-2,1.22561894E-1,-2.310628E-2,-1.3016583E-1,1.2806407E-1,1.2483251E-1,-1.3601191E-1,-4.7716092E-2,1.2888142E-1,-1.06599465E-1,1.8519291E-1,-2.1918646E-1,-1.2707154E-1,-1.2923478E-1,1.5989887E-2,-1.2741606E-1,-8.549797E-3,1.8211272E-2,-1.2631114E-1,1.1749963E-1,-1.2772231E-1,-1.2643425E-1,1.2737152E-1,-1.2738343E-1,4.541491E-2,-1.00809634E-1,-1.2817466E-1,-1.2808202E-1,1.3094644E-2,9.001474E-2,-1.24165826E-1],"split_indices":[11,0,14,13,11,9,10,10,5,29,36,12,0,0,1,30,0,24,19,0,0,1,17,0,5,0,0,0,0,33,24,6,9,12,5,2,0,33,37,0,0,42,17,0,30,0,0,0,0,0,0,0,0,0,0,0,0,0,0,0,0,0,0,0,0,0,0,0,0,0,0,0,0,0,0,0,0,0,0],"split_type":[0,0,0,0,0,0,0,0,0,0,0,0,0,0,0,0,0,0,0,0,0,0,0,0,0,0,0,0,0,0,0,0,0,0,0,0,0,0,0,0,0,0,0,0,0,0,0,0,0,0,0,0,0,0,0,0,0,0,0,0,0,0,0,0,0,0,0,0,0,0,0,0,0,0,0,0,0,0,0],"sum_hessian":[6.3642544E5,4.9687312E5,1.3955231E5,2.7288166E5,2.2399145E5,1.3949178E5,6.052191E1,1.3475573E5,1.3812592E5,1.128874E5,1.1110406E5,1.3948922E5,2.563536E0,3.1979736E1,2.8542177E1,1.1367584E5,2.1079893E4,1.380858E5,4.012184E1,1.0880924E5,4.0781545E3,8.641007E4,2.469399E4,1.3929561E5,1.9361467E2,1.281768E0,1.281768E0,2.73513E1,1.190878E0,2.388521E4,8.979063E4,2.7578928E3,1.8322E4,1.3709433E5,9.914756E2,3.7256477E1,2.8653631E0,1.8567395E3,1.069525E5,3.4564832E3,6.2167145E2,8.50488E4,1.361275E3,1.0865196E4,1.3828794E4,2.6416996E1,1.6719768E2,1.0760095E4,1.3125116E4,7.509836E4,1.4692278E4,1.0995984E3,1.6582944E3,6.729005E2,1.76491E4,2.4994118E1,1.3706933E5,5.435754E0,9.8603986E2,1.4151118E1,2.310536E1,1.5716533E3,2.8508624E2,1.0690241E5,5.009414E1,4.8504368E1,3.4079788E3,3.6403372E2,2.576377E2,6.3426613E1,8.4985375E4,6.63193E2,6.98082E2,7.4344634E3,3.430733E3,1.3812929E4,1.5865478E1,1.4005728E1,1.2411268E1],"tree_param":{"num_deleted":"0","num_feature":"53","num_nodes":"79","size_leaf_vector":"1"}},{"base_weights":[-2.4323586E-4,3.4754807E-1,-1.2466631E0,8.57512E-1,-2.7916935E-1,-1.2471578E0,-1.09400034E-1,4.5479587E-1,1.2544844E0,-1.2268676E0,6.822874E-1,-1.2471818E0,5.1357322E-8,-1.2139197E-1,1.1235697E0,7.292145E-1,-1.074848E0,1.2565396E0,-1.3791628E0,-1.2354206E0,-9.98902E-1,1.2112635E0,-1.1577824E0,-1.2473986E-1,-1.0858942E0,7.823341E-2,-7.823341E-2,1.20847724E-1,-4.233951E-2,-6.698607E-2,9.450266E-1,2.4417333E-1,-1.2764212E0,1.2532015E0,1.6914335E0,-1.5214031E0,4.1965082E-2,-1.026657E0,-1.2390832E0,-1.2066456E0,1.5293366E-1,-3.6634964E-1,1.2373196E0,-1.0489793E0,-1.2444149E0,-1.1030741E-1,-1.24268666E-1,-8.554178E-2,1.2509467E-1,1.1902424E-1,-1.9267334E-2,-1.264709E-1,1.2467761E-1,1.15327634E-1,-1.3312674E-1,-1.562748E-1,1.2534718E-1,-1.1200259E-1,1.7143805E-1,8.444708E-2,-1.5690164E-1,1.3292855E-1,-1.065943E-1,-1.256034E-1,1.4318729E-2,-1.2403096E-1,-6.103604E-2,1.6439175E-2,-1.2276665E-1,1.13308206E-1,-1.2431496E-1,-1.235621E-1,4.158452E-2,-1.2297149E-1,1.2391827E-1,-9.590565E-2,-1.2477894E-1,-1.2453138E-1,1.4612262E-1,8.406737E-2,-1.19903825E-1],"categories":[],"categories_nodes":[],"categories_segments":[],"categories_sizes":[],"default_left":[0,0,0,0,0,0,0,0,0,0,0,0,0,0,0,0,0,0,0,0,0,0,0,0,0,0,0,0,0,0,0,0,0,0,0,0,0,0,0,0,0,0,0,0,0,0,0,0,0,0,0,0,0,0,0,0,0,0,0,0,0,0,0,0,0,0,0,0,0,0,0,0,0,0,0,0,0,0,0,0,0],"id":9,"left_children":[1,3,5,7,9,11,13,15,17,19,21,23,25,-1,27,29,31,33,35,37,39,41,43,-1,45,-1,-1,-1,-1,47,49,51,53,55,57,59,61,63,65,67,69,71,73,75,77,79,-1,-1,-1,-1,-1,-1,-1,-1,-1,-1,-1,-1,-1,-1,-1,-1,-1,-1,-1,-1,-1,-1,-1,-1,-1,-1,-1,-1,-1,-1,-1,-1,-1,-1,-1],"loss_changes":[2.5736531E5,1.4835334E5,7.2734375E1,4.0914047E4,1.8975336E5,3.859375E0,7.956245E1,5.3330293E4,6.993125E2,2.0325E2,1.00622664E5,3.171875E0,2.7430472E0,0E0,4.143757E0,1.8509914E4,5.1386074E3,1.8482812E2,2.0474167E1,7.6015625E1,9.08937E2,3.301039E3,2.1627148E2,0E0,2.7629974E1,0E0,0E0,0E0,0E0,2.3872018E4,2.3644062E4,3.8784407E3,2.235504E3,9.925E1,6.5022705E1,1.1667221E1,1.5907138E1,4.6940503E2,7.584375E1,9.293408E1,7.9668335E2,8.880849E2,3.6460156E2,1.8184375E2,3.30625E1,2.8167639E1,0E0,0E0,0E0,0E0,0E0,0E0,0E0,0E0,0E0,0E0,0E0,0E0,0E0,0E0,0E0,0E0,0E0,0E0,0E0,0E0,0E0,0E0,0E0,0E0,0E0,0E0,0E0,0E0,0E0,0E0,0E0,0E0,0E0,0E0,0E0],"parents":[2147483647,0,0,1,1,2,2,3,3,4,4,5,5,6,6,7,7,8,8,9,9,10,10,11,11,12,12,14,14,15,15,16,16,17,17,18,18,19,19,20,20,21,21,22,22,24,24,29,29,30,30,31,31,32,32,33,33,34,34,35,35,36,36,37,37,38,38,39,39,40,40,41,41,42,42,43,43,44,44,45,45],"right_children":[2,4,6,8,10,12,14,16,18,20,22,24,26,-1,28,30,32,34,36,38,40,42,44,-1,46,-1,-1,-1,-1,48,50,52,54,56,58,60,62,64,66,68,70,72,74,76,78,80,-1,-1,-1,-1,-1,-1,-1,-1,-1,-1,-1,-1,-1,-1,-1,-1,-1,-1,-1,-1,-1,-1,-1,-1,-1,-1,-1,-1,-1,-1,-1,-1,-1,-1,-1],"split_conditions":[-2.6261482E-1,-4.3440932E-1,3.3956167E-1,1.0679946E0,-5.094167E-1,2.800395E0,2.584639E-1,-4.245834E-1,-4.0481103E-4,-1.16407946E-1,-5.5198276E-1,1.6723766E0,-4.3626988E-1,-1.2139197E-1,-4.3960893E-1,1.2383396E-3,-4.3878707E-1,-1.1846885E-1,4.2027357E-1,-4.2718607E-1,1.010513E-3,-5.7163067E-2,-3.630365E-1,-1.2473986E-1,-6.4441324E-3,7.823341E-2,-7.823341E-2,1.20847724E-1,-4.233951E-2,-4.6351108E-1,-1.18847646E-1,3.6402646E-1,-2.0770071E-1,6.5293485E-1,-4.3926663E-3,-2.7849746E-1,5.661119E-1,-1.6610973E-1,5.245671E0,-4.2718607E-1,1.2556773E-2,-3.2964242E-1,1.5337908E0,2.5195725E0,3.4371743E0,-4.3626988E-1,-1.24268666E-1,-8.554178E-2,1.2509467E-1,1.1902424E-1,-1.9267334E-2,-1.264709E-1,1.2467761E-1,1.15327634E-1,-1.3312674E-1,-1.562748E-1,1.2534718E-1,-1.1200259E-1,1.7143805E-1,8.444708E-2,-1.5690164E-1,1.3292855E-1,-1.065943E-1,-1.256034E-1,1.4318729E-2,-1.2403096E-1,-6.103604E-2,1.6439175E-2,-1.2276665E-1,1.13308206E-1,-1.2431496E-1,-1.235621E-1,4.158452E-2,-1.2297149E-1,1.2391827E-1,-9.590565E-2,-1.2477894E-1,-1.2453138E-1,1.4612262E-1,8.406737E-2,-1.19903825E-1],"split_indices":[11,0,14,13,11,9,10,10,3,29,36,12,0,0,1,30,0,24,8,0,0,14,17,0,5,0,0,0,0,37,24,6,9,12,5,15,6,33,35,0,0,17,42,0,23,0,0,0,0,0,0,0,0,0,0,0,0,0,0,0,0,0,0,0,0,0,0,0,0,0,0,0,0,0,0,0,0,0,0,0,0],"split_type":[0,0,0,0,0,0,0,0,0,0,0,0,0,0,0,0,0,0,0,0,0,0,0,0,0,0,0,0,0,0,0,0,0,0,0,0,0,0,0,0,0,0,0,0,0,0,0,0,0,0,0,0,0,0,0,0,0,0,0,0,0,0,0,0,0,0,0,0,0,0,0,0,0,0,0,0,0,0,0,0,0],"sum_hessian":[5.936978E5,4.6417797E5,1.2951988E5,2.5592764E5,2.0825033E5,1.2946346E5,5.6421257E1,1.2704579E5,1.2888184E5,1.04875414E5,1.0337491E5,1.29460984E5,2.4817612E0,2.9769014E1,2.6652243E1,1.0772111E5,1.932468E4,1.28781875E5,9.99704E1,1.0107866E5,3.7967588E3,8.0292945E4,2.3081963E4,1.2928045E5,1.8052599E2,1.2408807E0,1.2408805E0,2.5472929E1,1.1793139E0,2.2971717E4,8.47494E4,2.5616917E3,1.6762988E4,1.2780476E5,9.7711285E2,9.081063E1,9.159769E0,1.7476523E3,9.9331E4,3.216574E3,5.8018463E2,1.3043677E3,7.898858E4,1.0237555E4,1.2844408E4,2.523201E1,1.5529398E2,1.437341E4,8.598307E3,6.9721766E4,1.502763E4,1.02254126E3,1.5391504E3,3.696003E2,1.6393387E4,1.1711572E1,1.2779305E5,7.5234942E0,9.6958936E2,1.461349E0,8.934928E1,4.144408E0,5.0153613E0,1.4610948E3,2.8655746E2,9.913665E4,1.94356E2,4.846934E1,3.1681047E3,3.4098068E2,2.3920398E2,6.175218E2,6.8684595E2,5.9113224E1,7.892947E4,7.053184E3,3.1843708E3,1.2840682E4,3.7265182E0,1.3589628E1,1.1642383E1],"tree_param":{"num_deleted":"0","num_feature":"53","num_nodes":"81","size_leaf_vector":"1"}},{"base_weights":[-2.0033137E-4,3.3706108E-1,-1.2176458E0,8.280224E-1,-2.721039E-1,-1.2181313E0,-1.0693858E-1,4.347161E-1,1.2239372E0,-1.1969575E0,6.645859E-1,-1.2181556E0,-5.260229E-8,-1.18278004E-1,1.0900239E0,6.9577754E-1,-1.0346178E0,1.2259599E0,-1.3190264E0,-1.2054083E0,-9.722489E-1,1.1814443E0,-1.121568E0,-1.2183745E-1,-1.0559398E0,7.5358294E-2,-7.5358294E-2,1.1770355E-1,-4.0279698E-2,8.8652605E-1,-1.6127045E-1,2.3835704E-1,-1.2262417E0,1.2231003E0,1.5839436E0,-1.4576783E0,4.0553425E-2,-1.2096236E0,-1.0033337E0,-1.1749544E0,1.4808284E-1,1.2077037E0,-3.381967E-1,-1.0067227E0,-1.2144921E0,-1.1374724E0,7.2310936E-1,-5.2978303E-3,1.1556949E-1,-6.715629E-2,1.1883917E-1,-1.23310745E-1,1.21770956E-1,1.5256958E-1,-1.2719153E-1,-1.4926428E-1,1.223368E-1,-1.0611788E-1,1.6055055E-1,8.1214905E-2,-1.5047984E-1,1.23308025E-1,-1.0530882E-1,-1.2109393E-1,-5.6712996E-2,2.5097176E-1,-1.2395378E-1,1.4840635E-2,-1.1968219E-1,1.09501064E-1,-1.2138331E-1,-1.1991867E-1,1.2094901E-1,-1.1650107E-1,3.8053416E-2,-9.131549E-2,-1.21865414E-1,-1.2163722E-1,2.438061E-2,-2.2740504E-2,-1.2028306E-1,1.12168185E-1,-7.2574735E-2],"categories":[],"categories_nodes":[],"categories_segments":[],"categories_sizes":[],"default_left":[0,0,0,0,0,0,0,0,0,0,0,0,0,0,0,0,0,0,0,0,0,0,0,0,0,0,0,0,0,0,0,0,0,0,0,0,0,0,0,0,0,0,0,0,0,0,0,0,0,0,0,0,0,0,0,0,0,0,0,0,0,0,0,0,0,0,0,0,0,0,0,0,0,0,0,0,0,0,0,0,0,0,0],"id":10,"left_children":[1,3,5,7,9,11,13,15,17,19,21,23,25,-1,27,29,31,33,35,37,39,41,43,-1,45,-1,-1,-1,-1,47,49,51,53,55,57,59,61,63,65,67,69,71,73,75,77,79,81,-1,-1,-1,-1,-1,-1,-1,-1,-1,-1,-1,-1,-1,-1,-1,-1,-1,-1,-1,-1,-1,-1,-1,-1,-1,-1,-1,-1,-1,-1,-1,-1,-1,-1,-1,-1],"loss_changes":[2.268368E5,1.293842E5,6.4484375E1,3.730075E4,1.6725364E5,3.5625E0,7.013083E1,4.6096695E4,6.157031E2,1.8332812E2,8.8553234E4,2.96875E0,2.4983382E0,0E0,3.8286476E0,1.668198E4,4.422879E3,1.20171875E2,1.80363E1,7.8515625E1,8.009861E2,2.9690625E3,2.2851758E2,0E0,2.5316269E1,0E0,0E0,0E0,0E0,2.1107242E4,1.2795367E4,3.4211375E3,1.982623E3,8.784375E1,5.542456E1,1.04808655E1,1.4077605E1,7.6828125E1,1.5953905E3,8.65918E1,6.9922766E2,3.158828E2,7.51855E2,1.8992773E2,3.290625E1,9.3535E0,5.4402785E0,0E0,0E0,0E0,0E0,0E0,0E0,0E0,0E0,0E0,0E0,0E0,0E0,0E0,0E0,0E0,0E0,0E0,0E0,0E0,0E0,0E0,0E0,0E0,0E0,0E0,0E0,0E0,0E0,0E0,0E0,0E0,0E0,0E0,0E0,0E0,0E0],"parents":[2147483647,0,0,1,1,2,2,3,3,4,4,5,5,6,6,7,7,8,8,9,9,10,10,11,11,12,12,14,14,15,15,16,16,17,17,18,18,19,19,20,20,21,21,22,22,24,24,29,29,30,30,31,31,32,32,33,33,34,34,35,35,36,36,37,37,38,38,39,39,40,40,41,41,42,42,43,43,44,44,45,45,46,46],"right_children":[2,4,6,8,10,12,14,16,18,20,22,24,26,-1,28,30,32,34,36,38,40,42,44,-1,46,-1,-1,-1,-1,48,50,52,54,56,58,60,62,64,66,68,70,72,74,76,78,80,82,-1,-1,-1,-1,-1,-1,-1,-1,-1,-1,-1,-1,-1,-1,-1,-1,-1,-1,-1,-1,-1,-1,-1,-1,-1,-1,-1,-1,-1,-1,-1,-1,-1,-1,-1,-1],"split_conditions":[-2.6261482E-1,-4.3440932E-1,3.3956167E-1,1.0679946E0,-5.094167E-1,2.800395E0,2.584639E-1,-4.245834E-1,-4.0481103E-4,-1.16407946E-1,-5.5198276E-1,1.6723766E0,-4.3626988E-1,-1.18278004E-1,-4.3960893E-1,-1.18847646E-1,-4.3878707E-1,-1.1846885E-1,4.2027357E-1,-5.674877E-1,1.010513E-3,-4.3959984E-1,-3.630365E-1,-1.2183745E-1,-5.501617E-2,7.5358294E-2,-7.5358294E-2,1.1770355E-1,-4.0279698E-2,1.2379597E-3,1.2248479E0,3.6402646E-1,-9.8246075E-3,6.5293485E-1,-4.3926663E-3,-2.7849746E-1,1.4942448E0,5.245671E0,-4.6369857E-1,-4.2718607E-1,1.2556773E-2,1.5337908E0,-3.2964242E-1,2.5195725E0,1.6585921E-3,4.8063052E-1,-4.3626988E-1,-5.2978303E-3,1.1556949E-1,-6.715629E-2,1.1883917E-1,-1.23310745E-1,1.21770956E-1,1.5256958E-1,-1.2719153E-1,-1.4926428E-1,1.223368E-1,-1.0611788E-1,1.6055055E-1,8.1214905E-2,-1.5047984E-1,1.23308025E-1,-1.0530882E-1,-1.2109393E-1,-5.6712996E-2,2.5097176E-1,-1.2395378E-1,1.4840635E-2,-1.1968219E-1,1.09501064E-1,-1.2138331E-1,-1.1991867E-1,1.2094901E-1,-1.1650107E-1,3.8053416E-2,-9.131549E-2,-1.21865414E-1,-1.2163722E-1,2.438061E-2,-2.2740504E-2,-1.2028306E-1,1.12168185E-1,-7.2574735E-2],"split_indices":[11,0,14,13,11,9,10,10,3,29,36,12,0,0,1,24,0,24,8,11,0,1,17,0,19,0,0,0,0,30,16,6,2,12,5,15,36,35,37,0,0,42,17,0,30,46,0,0,0,0,0,0,0,0,0,0,0,0,0,0,0,0,0,0,0,0,0,0,0,0,0,0,0,0,0,0,0,0,0,0,0,0,0],"split_type":[0,0,0,0,0,0,0,0,0,0,0,0,0,0,0,0,0,0,0,0,0,0,0,0,0,0,0,0,0,0,0,0,0,0,0,0,0,0,0,0,0,0,0,0,0,0,0,0,0,0,0,0,0,0,0,0,0,0,0,0,0,0,0,0,0,0,0,0,0,0,0,0,0,0,0,0,0,0,0,0,0,0,0],"sum_hessian":[5.5245356E5,4.3261078E5,1.1984278E5,2.3954625E5,1.9306453E5,1.1979032E5,5.2459137E1,1.2017003E5,1.1937621E5,9.7145914E4,9.5918625E4,1.1978792E5,2.3993564E0,2.7633621E1,2.4825516E1,1.0204066E5,1.8129377E4,1.1928184E5,9.436549E1,9.362062E4,3.5252913E3,7.439215E4,2.152648E4,1.19620055E5,1.6786366E2,1.1996782E0,1.1996782E0,2.3658102E1,1.1674149E0,8.346441E4,1.857625E4,2.3719636E3,1.5757413E4,1.1834093E5,9.4091016E2,8.5567085E1,8.798415E0,9.170274E4,1.9178779E3,2.985132E3,5.4015924E2,7.312869E4,1.2634562E3,9.632931E3,1.189355E4,1.6085254E2,7.0111256E0,1.8587518E4,6.4876887E4,1.3480082E4,5.0961685E3,9.4773895E2,1.4242246E3,2.5672455E2,1.5500688E4,1.1113456E1,1.1832982E5,7.218016E0,9.3369214E2,1.4100028E0,8.415708E1,4.147933E0,4.650482E0,9.151446E4,1.88281E2,1.2022044E2,1.7976575E3,4.8430935E1,2.9367012E3,3.1873892E2,2.214203E2,5.373992E1,7.307495E4,5.872613E2,6.761949E2,6.6862534E3,2.9466768E3,1.1878401E4,1.5147706E1,1.1078024E1,1.497745E2,5.675612E0,1.3355137E0],"tree_param":{"num_deleted":"0","num_feature":"53","num_nodes":"83","size_leaf_vector":"1"}},{"base_weights":[-1.640062E-4,3.2728228E-1,-1.192582E0,2.9926617E-3,1.1941999E0,-1.1930599E0,-1.04794055E-1,5.490133E-1,-9.6995646E-1,1.2003548E0,-1.0852212E0,-1.193085E0,5.3905115E-8,-1.1552749E-1,1.0597242E0,8.885546E-1,-6.23869E-1,5.9556115E-1,-1.071563E0,1.2006812E0,-1.109114E0,1.6790497E-1,-1.1969632E0,-1.1933134E-1,-1.025124E0,7.26756E-2,-7.267559E-2,1.1491831E-1,-3.8335312E-2,3.657977E-1,1.1658015E0,-8.732887E-1,9.239907E-1,-1.0797588E0,1.0330281E0,-1.1104554E0,1.1543474E0,1.1981757E0,1.5106754E0,-1.265562E-1,5.5979546E-2,-1.2022606E-1,1.2587008E-2,-9.257648E-2,-1.1887782E-1,8.876171E-2,-1.1952218E-1,1.18845455E-1,-1.1713246E-1,6.1478257E-2,-1.0241523E-1,1.3651492E-1,-1.1937292E-1,1.1852032E-1,-1.2434238E-1,1.1245511E-1,-1.2022119E-1,-1.1290368E-1,1.7412161E-2,1.2829246E-1,-1.2253211E-1,-2.2958994E-1,1.19826674E-1,-1.0889043E-1,1.5169731E-1,4.9458943E-2,-1.0983336E-1],"categories":[],"categories_nodes":[],"categories_segments":[],"categories_sizes":[],"default_left":[0,0,0,0,0,0,0,0,0,0,0,0,0,0,0,0,0,0,0,0,0,0,0,0,0,0,0,0,0,0,0,0,0,0,0,0,0,0,0,0,0,0,0,0,0,0,0,0,0,0,0,0,0,0,0,0,0,0,0,0,0,0,0,0,0,0,0],"id":11,"left_children":[1,3,5,7,9,11,13,15,17,19,21,23,25,-1,27,29,31,33,35,37,39,-1,41,-1,43,-1,-1,-1,-1,45,47,49,51,53,55,57,59,61,63,-1,-1,-1,-1,65,-1,-1,-1,-1,-1,-1,-1,-1,-1,-1,-1,-1,-1,-1,-1,-1,-1,-1,-1,-1,-1,-1,-1],"loss_changes":[2.0044289E5,1.1322874E5,5.7375E1,1.5571788E5,1.5395781E3,3.296875E0,6.198374E1,7.477053E4,1.6760828E4,8.375E1,9.337576E1,3.03125E0,2.2802324E0,0E0,3.5488033E0,2.1101836E4,1.62738125E4,4.7080645E3,8.566984E3,8.3109375E1,4.8779545E0,0E0,2.1476746E0,0E0,2.3894562E1,0E0,0E0,0E0,0E0,4.110452E4,5.0384453E3,8.150217E3,5.4670024E3,4.9460498E2,1.0432759E3,2.321375E3,5.2160474E2,3.725E1,1.5939697E1,0E0,0E0,0E0,0E0,1.5050797E1,0E0,0E0,0E0,0E0,0E0,0E0,0E0,0E0,0E0,0E0,0E0,0E0,0E0,0E0,0E0,0E0,0E0,0E0,0E0,0E0,0E0,0E0,0E0],"parents":[2147483647,0,0,1,1,2,2,3,3,4,4,5,5,6,6,7,7,8,8,9,9,10,10,11,11,12,12,14,14,15,15,16,16,17,17,18,18,19,19,20,20,22,22,24,24,29,29,30,30,31,31,32,32,33,33,34,34,35,35,36,36,37,37,38,38,43,43],"right_children":[2,4,6,8,10,12,14,16,18,20,22,24,26,-1,28,30,32,34,36,38,40,-1,42,-1,44,-1,-1,-1,-1,46,48,50,52,54,56,58,60,62,64,-1,-1,-1,-1,66,-1,-1,-1,-1,-1,-1,-1,-1,-1,-1,-1,-1,-1,-1,-1,-1,-1,-1,-1,-1,-1,-1,-1],"split_conditions":[-2.6261482E-1,1.3823552E0,3.3956167E-1,-5.547756E-1,-4.3626988E-1,2.800395E0,2.584639E-1,1.5854619E-3,-4.3878707E-1,-8.201566E-4,1.5337908E0,1.6723766E0,-4.3626988E-1,-1.1552749E-1,-4.3960893E-1,-4.65916E-1,5.2290087E0,-1.19004E-1,2.7095933E0,-1.1846885E-1,-5.504971E-2,1.6790497E-1,3.3624835E0,-1.1933134E-1,-5.2392356E-2,7.26756E-2,-7.267559E-2,1.1491831E-1,-3.8335312E-2,-4.3626988E-1,-2.328798E-1,-4.3878707E-1,-4.3626988E-1,-2.5813335E-1,2.483963E-2,1.0679946E0,-7.140615E-3,-5.5961637E-3,-4.3926663E-3,-1.265562E-1,5.5979546E-2,-1.2022606E-1,1.2587008E-2,-4.3626988E-1,-1.1887782E-1,8.876171E-2,-1.1952218E-1,1.18845455E-1,-1.1713246E-1,6.1478257E-2,-1.0241523E-1,1.3651492E-1,-1.1937292E-1,1.1852032E-1,-1.2434238E-1,1.1245511E-1,-1.2022119E-1,-1.1290368E-1,1.7412161E-2,1.2829246E-1,-1.2253211E-1,-2.2958994E-1,1.19826674E-1,-1.0889043E-1,1.5169731E-1,4.9458943E-2,-1.0983336E-1],"split_indices":[11,13,14,46,0,9,10,31,0,5,42,12,0,0,1,35,39,24,26,24,19,0,37,0,4,0,0,0,0,0,9,0,0,32,2,13,5,5,5,0,0,0,0,0,0,0,0,0,0,0,0,0,0,0,0,0,0,0,0,0,0,0,0,0,0,0,0],"split_type":[0,0,0,0,0,0,0,0,0,0,0,0,0,0,0,0,0,0,0,0,0,0,0,0,0,0,0,0,0,0,0,0,0,0,0,0,0,0,0,0,0,0,0,0,0,0,0,0,0,0,0,0,0,0,0,0,0,0,0,0,0,0,0,0,0,0,0],"sum_hessian":[5.1335806E5,4.027585E5,1.1059956E5,2.9311384E5,1.09644664E5,1.105509E5,4.8668327E1,1.8774914E5,1.05364695E5,1.09349875E5,2.947926E2,1.1054858E5,2.3171978E0,2.5591162E1,2.3077164E1,1.4559938E5,4.214976E4,6.421386E3,9.8943305E4,1.0933491E5,1.4969131E1,1.0908657E1,2.8388394E2,1.1039229E5,1.5628847E2,1.158599E0,1.1585989E0,2.192185E1,1.1553138E0,5.04593E4,9.5140086E4,3.630075E4,5.8490103E3,1.329288E3,5.092098E3,9.7244695E4,1.6986155E3,1.0846314E5,8.717614E2,1.39071245E1,1.0620067E0,2.8284244E2,1.0415106E0,2.356636E1,1.327221E2,3.7817914E4,1.2641384E4,9.422726E4,9.128218E2,3.3411921E3,3.295956E4,4.840917E3,1.008093E3,8.916001E1,1.2401279E3,4.892279E3,1.9981967E2,9.585823E4,1.3864663E3,1.6119786E3,8.663679E1,2.169345E0,1.0846098E5,1.6913075E0,8.700701E2,1.5200484E1,8.365875E0],"tree_param":{"num_deleted":"0","num_feature":"53","num_nodes":"67","size_leaf_vector":"1"}},{"base_weights":[-1.0655384E-4,3.1796554E-1,-1.1708214E0,3.0083926E-3,1.1715207E0,-1.1712933E0,-1.0290888E-1,5.3070897E-1,-9.3940324E-1,1.1775658E0,-1.0619819E0,-1.171319E0,-5.5258074E-8,-1.13074616E-1,1.0320412E0,8.6275417E-1,-5.9269685E-1,5.772508E-1,-1.037813E0,1.177889E0,-1.0710734E0,1.558169E-1,-1.1743784E0,-1.1715557E-1,-9.98668E-1,7.016293E-2,-7.016294E-2,1.1242642E-1,-3.649762E-2,3.4924182E-1,1.1411399E0,-8.271557E-1,8.9580595E-1,-1.0305904E0,1.0045155E0,-1.0753746E0,1.1247686E0,1.1757098E0,1.4399098E0,-1.2302198E-1,5.3399947E-2,-1.1800059E-1,1.1919968E-2,-7.2306395E-2,-1.1658467E-1,8.4179856E-2,-1.1732232E-1,1.1634048E-1,-1.136502E-1,5.6063343E-2,-9.73502E-2,1.3206272E-1,-1.17171936E-1,4.3025114E-2,-1.288654E-1,-4.3837074E-2,1.1481767E-1,-1.094465E-1,1.5705144E-2,1.2498098E-1,-1.20066516E-1,-2.065248E-1,1.17580436E-1,-1.0399474E-1,1.4461112E-1,7.499277E-2,-1.1120577E-1],"categories":[],"categories_nodes":[],"categories_segments":[],"categories_sizes":[],"default_left":[0,0,0,0,0,0,0,0,0,0,0,0,0,0,0,0,0,0,0,0,0,0,0,0,0,0,0,0,0,0,0,0,0,0,0,0,0,0,0,0,0,0,0,0,0,0,0,0,0,0,0,0,0,0,0,0,0,0,0,0,0,0,0,0,0,0,0],"id":12,"left_children":[1,3,5,7,9,11,13,15,17,19,21,23,25,-1,27,29,31,33,35,37,39,-1,41,-1,43,-1,-1,-1,-1,45,47,49,51,53,55,57,59,61,63,-1,-1,-1,-1,65,-1,-1,-1,-1,-1,-1,-1,-1,-1,-1,-1,-1,-1,-1,-1,-1,-1,-1,-1,-1,-1,-1,-1],"loss_changes":[1.7750128E5,1.007689E5,5.11875E1,1.3616739E5,1.3653594E3,3.078125E0,5.4909492E1,6.547452E4,1.466982E4,7.45E1,8.229678E1,3E0,2.085303E0,0E0,3.2984676E0,1.9367078E4,1.397592E4,4.1155386E3,7.4983594E3,5.5828125E1,4.489769E0,0E0,2.052063E0,0E0,2.2547852E1,0E0,0E0,0E0,0E0,3.5717555E4,4.456492E3,7.0268496E3,4.78815E3,4.7478296E2,9.814634E2,2.1346016E3,4.5981616E2,3.303125E1,1.4214111E1,0E0,0E0,0E0,0E0,2.0845514E1,0E0,0E0,0E0,0E0,0E0,0E0,0E0,0E0,0E0,0E0,0E0,0E0,0E0,0E0,0E0,0E0,0E0,0E0,0E0,0E0,0E0,0E0,0E0],"parents":[2147483647,0,0,1,1,2,2,3,3,4,4,5,5,6,6,7,7,8,8,9,9,10,10,11,11,12,12,14,14,15,15,16,16,17,17,18,18,19,19,20,20,22,22,24,24,29,29,30,30,31,31,32,32,33,33,34,34,35,35,36,36,37,37,38,38,43,43],"right_children":[2,4,6,8,10,12,14,16,18,20,22,24,26,-1,28,30,32,34,36,38,40,-1,42,-1,44,-1,-1,-1,-1,46,48,50,52,54,56,58,60,62,64,-1,-1,-1,-1,66,-1,-1,-1,-1,-1,-1,-1,-1,-1,-1,-1,-1,-1,-1,-1,-1,-1,-1,-1,-1,-1,-1,-1],"split_conditions":[-2.6261482E-1,1.3823552E0,3.3956167E-1,-5.547756E-1,-4.3626988E-1,2.800395E0,2.584639E-1,1.5854619E-3,-4.3878707E-1,-8.201566E-4,1.5337908E0,1.6723766E0,-4.3626988E-1,-1.13074616E-1,-4.3960893E-1,-4.65916E-1,5.2290087E0,-1.19004E-1,2.7095933E0,-1.1846885E-1,-5.504971E-2,1.558169E-1,3.3624835E0,-1.1715557E-1,-6.4441324E-3,7.016293E-2,-7.016294E-2,1.1242642E-1,-3.649762E-2,-4.3626988E-1,-2.328798E-1,-4.3878707E-1,-4.3626988E-1,-1.8336545E-1,-5.506597E-2,1.0679946E0,-7.140615E-3,-5.5961637E-3,-4.3926663E-3,-1.2302198E-1,5.3399947E-2,-1.1800059E-1,1.1919968E-2,-4.3626988E-1,-1.1658467E-1,8.4179856E-2,-1.1732232E-1,1.1634048E-1,-1.136502E-1,5.6063343E-2,-9.73502E-2,1.3206272E-1,-1.17171936E-1,4.3025114E-2,-1.288654E-1,-4.3837074E-2,1.1481767E-1,-1.094465E-1,1.5705144E-2,1.2498098E-1,-1.20066516E-1,-2.065248E-1,1.17580436E-1,-1.0399474E-1,1.4461112E-1,7.499277E-2,-1.1120577E-1],"split_indices":[11,13,14,46,0,9,10,31,0,5,42,12,0,0,1,35,39,24,26,24,19,0,37,0,5,0,0,0,0,0,9,0,0,33,19,13,5,5,5,0,0,0,0,0,0,0,0,0,0,0,0,0,0,0,0,0,0,0,0,0,0,0,0,0,0,0,0],"split_type":[0,0,0,0,0,0,0,0,0,0,0,0,0,0,0,0,0,0,0,0,0,0,0,0,0,0,0,0,0,0,0,0,0,0,0,0,0,0,0,0,0,0,0,0,0,0,0,0,0,0,0,0,0,0,0,0,0,0,0,0,0,0,0,0,0,0,0],"sum_hessian":[4.7667572E5,3.7483684E5,1.01838875E5,2.7380522E5,1.0103161E5,1.01793805E5,4.506986E1,1.755224E5,9.828282E4,1.00759375E5,2.7223618E2,1.0179156E5,2.2359784E0,2.3652924E1,2.1416935E1,1.3547908E5,4.0043332E4,5.988316E3,9.22945E4,1.0074537E5,1.4004726E1,1.0668657E1,2.615675E2,1.0164643E5,1.4513853E2,1.1179892E0,1.1179893E0,2.0273813E1,1.1431222E0,4.762742E4,8.785166E4,3.459466E4,5.4486714E3,1.2569336E3,4.7313823E3,9.071931E4,1.575187E3,9.991987E4,8.255025E2,1.2953865E1,1.0508616E0,2.6052194E2,1.0455599E0,2.2407541E1,1.22730995E2,3.5985598E4,1.1641823E4,8.7001664E4,8.499928E2,3.2998303E3,3.1294832E4,4.5202437E3,9.284281E2,1.8860649E2,1.068327E3,4.282389E2,4.3031436E3,8.933561E4,1.383709E3,1.4952484E3,7.993858E1,2.275925E0,9.991759E4,1.6433748E0,8.2385913E2,1.2668248E1,9.739292E0],"tree_param":{"num_deleted":"0","num_feature":"53","num_nodes":"67","size_leaf_vector":"1"}},{"base_weights":[-3.6271078E-5,3.092377E-1,-1.1518404E0,3.0466274E-3,1.1517544E0,-1.1523074E0,-1.0123597E-1,5.13289E-1,-9.103943E-1,1.157704E0,-1.0415652E0,-1.152334E0,-8.498123E-8,-1.1086648E-1,1.006469E0,8.38426E-1,-5.627586E-1,5.609445E-1,-1.005673E0,1.158025E0,-1.0358713E0,1.4610846E-1,-1.1545811E0,-1.15257576E-1,-9.768334E-1,6.780159E-2,-6.7801595E-2,1.1017521E-1,-3.4758884E-2,3.3320087E-1,1.1190178E0,-7.8264636E-1,8.716212E-1,-9.9439776E-1,9.7769994E-1,-1.0419346E0,1.0989192E0,1.1561219E0,1.3812592E0,-1.1980821E-1,5.0963517E-2,1.3991008E-2,-1.16059974E-1,-7.085458E-2,-1.1459277E-1,7.9747856E-2,-1.1540379E-1,1.1409493E-1,-1.1038853E-1,5.1145922E-2,-9.243997E-2,1.2825613E-1,-1.15250506E-1,-1.1665388E-1,1.2148856E-1,-3.9762232E-2,1.1250775E-1,1.4110188E-1,-1.05278544E-1,1.2209039E-1,-1.1787703E-1,-1.8809076E-1,1.15621984E-1,-9.9524856E-2,1.3874172E-1,7.0167534E-2,-1.08308494E-1],"categories":[],"categories_nodes":[],"categories_segments":[],"categories_sizes":[],"default_left":[0,0,0,0,0,0,0,0,0,0,0,0,0,0,0,0,0,0,0,0,0,0,0,0,0,0,0,0,0,0,0,0,0,0,0,0,0,0,0,0,0,0,0,0,0,0,0,0,0,0,0,0,0,0,0,0,0,0,0,0,0,0,0,0,0,0,0],"id":13,"left_children":[1,3,5,7,9,11,13,15,17,19,21,23,25,-1,27,29,31,33,35,37,39,-1,41,-1,43,-1,-1,-1,-1,45,47,49,51,53,55,57,59,61,63,-1,-1,-1,-1,65,-1,-1,-1,-1,-1,-1,-1,-1,-1,-1,-1,-1,-1,-1,-1,-1,-1,-1,-1,-1,-1,-1,-1],"loss_changes":[1.5749886E5,8.991489E4,4.58125E1,1.1914888E5,1.2135781E3,2.859375E0,4.8739254E1,5.7385406E4,1.2844703E4,6.642969E1,7.292322E1,2.8359375E0,1.9106455E0,0E0,3.0730572E0,1.7856188E4,1.2005157E4,3.6132954E3,6.5680703E3,3.7765625E1,4.1414833E0,0E0,2.0441895E0,0E0,2.0636353E1,0E0,0E0,0E0,0E0,3.105821E4,3.9493203E3,6.0545273E3,4.210002E3,4.494922E2,8.91417E2,2.253039E3,4.0652917E2,2.9507812E1,1.2766113E1,0E0,0E0,0E0,0E0,1.822674E1,0E0,0E0,0E0,0E0,0E0,0E0,0E0,0E0,0E0,0E0,0E0,0E0,0E0,0E0,0E0,0E0,0E0,0E0,0E0,0E0,0E0,0E0,0E0],"parents":[2147483647,0,0,1,1,2,2,3,3,4,4,5,5,6,6,7,7,8,8,9,9,10,10,11,11,12,12,14,14,15,15,16,16,17,17,18,18,19,19,20,20,22,22,24,24,29,29,30,30,31,31,32,32,33,33,34,34,35,35,36,36,37,37,38,38,43,43],"right_children":[2,4,6,8,10,12,14,16,18,20,22,24,26,-1,28,30,32,34,36,38,40,-1,42,-1,44,-1,-1,-1,-1,46,48,50,52,54,56,58,60,62,64,-1,-1,-1,-1,66,-1,-1,-1,-1,-1,-1,-1,-1,-1,-1,-1,-1,-1,-1,-1,-1,-1,-1,-1,-1,-1,-1,-1],"split_conditions":[-2.6261482E-1,1.3823552E0,3.3956167E-1,-5.547756E-1,-4.3626988E-1,2.800395E0,2.584639E-1,1.5854619E-3,-4.3878707E-1,-8.201566E-4,1.5337908E0,1.6723766E0,-4.3626988E-1,-1.1086648E-1,-4.3960893E-1,-4.65916E-1,5.2290087E0,-1.19004E-1,2.7095933E0,-1.1846885E-1,-5.504971E-2,1.4610846E-1,-2.9142886E-1,-1.15257576E-1,-6.4441324E-3,6.780159E-2,-6.7801595E-2,1.1017521E-1,-3.4758884E-2,-4.3626988E-1,-2.328798E-1,-4.3878707E-1,-4.3626988E-1,4.5336084E0,-5.506597E-2,-5.435684E-1,-7.140615E-3,-5.5961637E-3,-4.3926663E-3,-1.1980821E-1,5.0963517E-2,1.3991008E-2,-1.16059974E-1,-4.3626988E-1,-1.1459277E-1,7.9747856E-2,-1.1540379E-1,1.1409493E-1,-1.1038853E-1,5.1145922E-2,-9.243997E-2,1.2825613E-1,-1.15250506E-1,-1.1665388E-1,1.2148856E-1,-3.9762232E-2,1.1250775E-1,1.4110188E-1,-1.05278544E-1,1.2209039E-1,-1.1787703E-1,-1.8809076E-1,1.15621984E-1,-9.9524856E-2,1.3874172E-1,7.0167534E-2,-1.08308494E-1],"split_indices":[11,13,14,46,0,9,10,31,0,5,42,12,0,0,1,35,39,24,26,24,19,0,8,0,5,0,0,0,0,0,9,0,0,40,19,36,5,5,5,0,0,0,0,0,0,0,0,0,0,0,0,0,0,0,0,0,0,0,0,0,0,0,0,0,0,0,0],"split_type":[0,0,0,0,0,0,0,0,0,0,0,0,0,0,0,0,0,0,0,0,0,0,0,0,0,0,0,0,0,0,0,0,0,0,0,0,0,0,0,0,0,0,0,0,0,0,0,0,0,0,0,0,0,0,0,0,0,0,0,0,0,0,0,0,0,0,0],"sum_hessian":[4.4213356E5,3.4854544E5,9.358812E4,2.5564047E5,9.290496E4,9.354644E4,4.1675842E1,1.6402023E5,9.1620234E4,9.265409E4,2.5086113E2,9.354428E4,2.156237E0,2.182537E1,1.9850471E1,1.2596044E5,3.8059805E4,5.5718765E3,8.604836E4,9.2641016E4,1.308428E1,1.0323661E1,2.4053748E2,9.341005E4,1.3423573E2,1.0781183E0,1.0781186E0,1.871954E1,1.1309321E0,4.497751E4,8.098292E4,3.300123E4,5.0585728E3,1.1771891E3,4.3946875E3,8.4591375E4,1.4569796E3,9.186404E4,7.7697125E2,1.20448885E1,1.0393916E0,1.010233E0,2.3952724E2,2.1336637E1,1.128991E2,3.427744E4,1.0700071E4,8.019223E4,7.90695E2,3.2577476E3,2.9743484E4,4.2051963E3,8.5337646E2,1.0925339E3,8.465513E1,4.251845E2,3.9695027E3,3.7197894E2,8.42194E4,1.3833561E3,7.362351E1,2.3431358E0,9.1861695E4,1.5929734E0,7.753783E2,1.227512E1,9.061517E0],"tree_param":{"num_deleted":"0","num_feature":"53","num_nodes":"67","size_leaf_vector":"1"}},{"base_weights":[6.4093445E-5,3.009375E-1,-1.1352124E0,3.1357016E-3,1.1344502E0,-1.1356757E0,-9.973758E-2,4.9651626E-1,-8.819756E-1,1.1403165E0,-1.0234914E0,-1.1359229E0,-9.57273E-1,-1.088599E-1,9.8259544E-1,8.1519616E-1,-5.338151E-1,5.44795E-1,-9.7426784E-1,1.1406361E0,-1.0029712E0,-1.1436025E-1,1.2672919E0,-1.1359508E-1,7.671448E-3,1.4073174E-1,-1.0925198E0,1.0812151E-1,-3.3112165E-2,3.1757054E-1,1.0989597E0,-7.395154E-1,8.5070944E-1,-9.51085E-1,9.5232403E-1,-1.0092279E0,1.0761678E0,-1.6548626E-1,1.1407561E0,-1.16855465E-1,4.865859E-2,7.866028E-3,1.3812748E-1,7.9762816E-1,-9.727262E-2,-1.1330261E-1,-3.2629293E-1,7.5447015E-2,-1.1372366E-1,1.1206033E-1,-1.0729294E-1,-8.332309E-2,1.2619577E-1,1.2497469E-1,-1.1356572E-1,1.1757832E-1,-1.1317048E-1,1.0468441E-1,-1.16339445E-1,-1.0318525E-1,2.4443457E-2,1.19549505E-1,-1.1591717E-1,1.1390698E-1,1.3344936E-1,-3.6673594E-2,1.0632087E-1,6.65329E-2,-8.07075E-2],"categories":[],"categories_nodes":[],"categories_segments":[],"categories_sizes":[],"default_left":[0,0,0,0,0,0,0,0,0,0,0,0,0,0,0,0,0,0,0,0,0,0,0,0,0,0,0,0,0,0,0,0,0,0,0,0,0,0,0,0,0,0,0,0,0,0,0,0,0,0,0,0,0,0,0,0,0,0,0,0,0,0,0,0,0,0,0,0,0],"id":14,"left_children":[1,3,5,7,9,11,13,15,17,19,21,23,25,-1,27,29,31,33,35,37,39,-1,41,-1,-1,43,45,-1,-1,47,49,51,53,55,57,59,61,-1,63,-1,-1,-1,-1,65,-1,-1,67,-1,-1,-1,-1,-1,-1,-1,-1,-1,-1,-1,-1,-1,-1,-1,-1,-1,-1,-1,-1,-1,-1],"loss_changes":[1.3998822E5,8.0416914E4,4.1070312E1,1.04236625E5,1.0807578E3,2.6953125E0,4.3336594E1,5.0323332E4,1.1250148E4,5.9398438E1,6.521039E1,2.9921875E0,1.8741776E1,0E0,2.868887E0,1.6529023E4,1.0311994E4,3.1654915E3,5.7530547E3,3.0429688E1,3.8272133E0,0E0,1.5197716E0,0E0,0E0,1.1464166E1,3.0927124E0,0E0,0E0,2.7020996E4,3.5054688E3,5.9138223E3,3.7139775E3,4.2848962E2,8.171633E2,2.238039E3,3.603247E2,0E0,2.6257812E1,0E0,0E0,0E0,0E0,3.4019046E0,0E0,0E0,3.8770156E0,0E0,0E0,0E0,0E0,0E0,0E0,0E0,0E0,0E0,0E0,0E0,0E0,0E0,0E0,0E0,0E0,0E0,0E0,0E0,0E0,0E0,0E0],"parents":[2147483647,0,0,1,1,2,2,3,3,4,4,5,5,6,6,7,7,8,8,9,9,10,10,11,11,12,12,14,14,15,15,16,16,17,17,18,18,19,19,20,20,22,22,25,25,26,26,29,29,30,30,31,31,32,32,33,33,34,34,35,35,36,36,38,38,43,43,46,46],"right_children":[2,4,6,8,10,12,14,16,18,20,22,24,26,-1,28,30,32,34,36,38,40,-1,42,-1,-1,44,46,-1,-1,48,50,52,54,56,58,60,62,-1,64,-1,-1,-1,-1,66,-1,-1,68,-1,-1,-1,-1,-1,-1,-1,-1,-1,-1,-1,-1,-1,-1,-1,-1,-1,-1,-1,-1,-1,-1],"split_conditions":[-2.6261482E-1,1.3823552E0,3.3956167E-1,-5.547756E-1,-4.3626988E-1,1.6723766E0,2.584639E-1,1.5854619E-3,-4.3878707E-1,-8.201566E-4,3.2920482E0,2.800395E0,1.5827089E-3,-1.088599E-1,-4.3960893E-1,-4.65916E-1,5.2290087E0,-1.19004E-1,2.7095933E0,-5.5961637E-3,-5.504971E-2,-1.1436025E-1,5.661119E-1,-1.1359508E-1,7.671448E-3,-4.3626988E-1,5.2290087E0,1.0812151E-1,-3.3112165E-2,-4.3626988E-1,-2.328798E-1,1.0591893E0,-4.3626988E-1,-2.5813335E-1,2.483963E-2,1.0679946E0,-7.140615E-3,-1.6548626E-1,-1.1846885E-1,-1.16855465E-1,4.865859E-2,7.866028E-3,1.3812748E-1,-2.771801E-1,-9.727262E-2,-1.1330261E-1,2.553324E-1,7.5447015E-2,-1.1372366E-1,1.1206033E-1,-1.0729294E-1,-8.332309E-2,1.2619577E-1,1.2497469E-1,-1.1356572E-1,1.1757832E-1,-1.1317048E-1,1.0468441E-1,-1.16339445E-1,-1.0318525E-1,2.4443457E-2,1.19549505E-1,-1.1591717E-1,1.1390698E-1,1.3344936E-1,-3.6673594E-2,1.0632087E-1,6.65329E-2,-8.07075E-2],"split_indices":[11,13,14,46,0,12,10,31,0,5,37,9,31,0,1,35,39,24,26,5,19,0,6,0,0,0,39,0,0,0,9,16,0,32,2,13,5,0,24,0,0,0,0,7,0,0,36,0,0,0,0,0,0,0,0,0,0,0,0,0,0,0,0,0,0,0,0,0,0],"split_type":[0,0,0,0,0,0,0,0,0,0,0,0,0,0,0,0,0,0,0,0,0,0,0,0,0,0,0,0,0,0,0,0,0,0,0,0,0,0,0,0,0,0,0,0,0,0,0,0,0,0,0,0,0,0,0,0,0,0,0,0,0,0,0,0,0,0,0,0,0],"sum_hessian":[4.0983016E5,3.239713E5,8.585884E4,2.386914E5,8.527992E4,8.582035E4,3.849158E1,1.5326086E5,8.543055E4,8.504919E4,2.3073354E2,8.569618E4,1.2417053E2,2.0111315E1,1.8380264E1,1.1705587E5,3.6204992E4,5.1901255E3,8.024042E4,8.503698E4,1.2211692E1,2.197142E2,1.10193405E1,8.569427E4,1.9051863E0,1.361294E1,1.10557594E2,1.7261444E1,1.1188204E0,4.2509914E4,7.454595E4,3.1522174E4,4.682819E3,1.1109454E3,4.0791802E3,7.889575E4,1.344667E3,3.0600955E0,8.5033914E4,1.1183953E1,1.0277385E0,1.1121157E0,9.907225E0,8.740208E0,4.8727317E0,1.0455179E2,6.005803E0,3.2692396E4,9.817518E3,7.381089E4,7.3506573E2,3.011278E4,1.4093939E3,3.8997717E3,7.830472E2,8.652857E1,1.0244169E3,3.9052192E3,1.7396106E2,7.749735E4,1.3984036E3,1.276965E3,6.7701935E1,8.430698E4,7.269384E2,1.5525593E0,7.187649E0,1.8357294E0,4.1700735E0],"tree_param":{"num_deleted":"0","num_feature":"53","num_nodes":"69","size_leaf_vector":"1"}},{"base_weights":[1.7524045E-4,2.9291633E-1,-1.1205899E0,3.2397336E-3,1.1192409E0,-1.1210504E0,-9.8380245E-2,4.7999004E-1,-8.5485834E-1,1.1250347E0,-1.0073603E0,-1.1213061E0,-9.378255E-1,-1.07019186E-1,9.600825E-1,7.9275805E-1,-5.042093E-1,5.2932954E-1,-9.4421935E-1,1.1253536E0,-9.71949E-1,-1.1285677E-1,1.2011886E0,-1.121336E-1,7.1702637E-3,-7.6303564E-2,-1.11272156E-1,1.0622978E-1,-3.1551264E-2,3.022793E-1,1.0805694E0,8.934529E-3,-1.0387731E0,-9.1110677E-1,9.2816156E-1,-9.779127E-1,1.056009E0,-1.5513931E-1,1.1254767E0,-1.14116274E-1,4.647495E-2,7.4406564E-3,1.3143615E-1,6.2285376E-1,-1.0389121E-1,7.126608E-2,-1.1224692E-1,1.10196434E-1,-1.0431941E-1,7.416338E-2,-5.9830304E-2,-1.1290759E-1,1.9951693E-3,-1.0980071E-1,1.2128202E-1,-3.9400082E-2,1.0857677E-1,-1.0227112E-1,-3.2909006E-2,1.17301345E-1,-1.1414943E-1,1.12399414E-1,1.2924932E-1,-3.9463878E-2,9.235535E-2],"categories":[],"categories_nodes":[],"categories_segments":[],"categories_sizes":[],"default_left":[0,0,0,0,0,0,0,0,0,0,0,0,0,0,0,0,0,0,0,0,0,0,0,0,0,0,0,0,0,0,0,0,0,0,0,0,0,0,0,0,0,0,0,0,0,0,0,0,0,0,0,0,0,0,0,0,0,0,0,0,0,0,0,0,0],"id":15,"left_children":[1,3,5,7,9,11,13,15,17,19,21,23,25,-1,27,29,31,33,35,37,39,-1,41,-1,-1,43,-1,-1,-1,45,47,49,51,53,55,57,59,-1,61,-1,-1,-1,-1,63,-1,-1,-1,-1,-1,-1,-1,-1,-1,-1,-1,-1,-1,-1,-1,-1,-1,-1,-1,-1,-1],"loss_changes":[1.2459986E5,7.207758E4,3.6921875E1,9.121242E4,9.6415625E2,2.625E0,3.8590168E1,4.4120496E4,9.850309E3,5.321875E1,5.8344955E1,2.8828125E0,1.7345802E1,0E0,2.682953E0,1.53534375E4,9.481367E3,2.7755088E3,5.042328E3,2.7445312E1,3.5422297E0,0E0,1.3763771E0,0E0,0E0,1.4507923E1,0E0,0E0,0E0,2.3518453E4,3.1156016E3,7.847384E3,1.6185352E3,4.172708E2,7.887241E2,2.1378906E3,3.2007324E2,0E0,1.7851562E1,0E0,0E0,0E0,0E0,4.2058854E0,0E0,0E0,0E0,0E0,0E0,0E0,0E0,0E0,0E0,0E0,0E0,0E0,0E0,0E0,0E0,0E0,0E0,0E0,0E0,0E0,0E0],"parents":[2147483647,0,0,1,1,2,2,3,3,4,4,5,5,6,6,7,7,8,8,9,9,10,10,11,11,12,12,14,14,15,15,16,16,17,17,18,18,19,19,20,20,22,22,25,25,29,29,30,30,31,31,32,32,33,33,34,34,35,35,36,36,38,38,43,43],"right_children":[2,4,6,8,10,12,14,16,18,20,22,24,26,-1,28,30,32,34,36,38,40,-1,42,-1,-1,44,-1,-1,-1,46,48,50,52,54,56,58,60,-1,62,-1,-1,-1,-1,64,-1,-1,-1,-1,-1,-1,-1,-1,-1,-1,-1,-1,-1,-1,-1,-1,-1,-1,-1,-1,-1],"split_conditions":[-2.6261482E-1,1.3823552E0,3.3956167E-1,-5.547756E-1,-4.3626988E-1,1.6723766E0,2.584639E-1,1.5854619E-3,-4.3878707E-1,-8.201566E-4,3.2920482E0,2.800395E0,-6.4441324E-3,-1.07019186E-1,-4.3960893E-1,-4.65916E-1,-4.2718607E-1,-1.19004E-1,2.7095933E0,-5.5961637E-3,-5.504971E-2,-1.1285677E-1,5.661119E-1,-1.121336E-1,7.1702637E-3,-4.3626988E-1,-1.11272156E-1,1.0622978E-1,-3.1551264E-2,-4.3626988E-1,-2.328798E-1,-2.850792E-1,1.2392891E-3,4.5336084E0,-5.506597E-2,7.670307E-1,-7.140615E-3,-1.5513931E-1,-1.1846885E-1,-1.14116274E-1,4.647495E-2,7.4406564E-3,1.3143615E-1,-4.393293E-1,-1.0389121E-1,7.126608E-2,-1.1224692E-1,1.10196434E-1,-1.0431941E-1,7.416338E-2,-5.9830304E-2,-1.1290759E-1,1.9951693E-3,-1.0980071E-1,1.2128202E-1,-3.9400082E-2,1.0857677E-1,-1.0227112E-1,-3.2909006E-2,1.17301345E-1,-1.1414943E-1,1.12399414E-1,1.2924932E-1,-3.9463878E-2,9.235535E-2],"split_indices":[11,13,14,46,0,12,10,31,0,5,37,9,5,0,1,35,0,24,26,5,19,0,6,0,0,0,0,0,0,0,9,16,30,40,19,13,5,0,24,0,0,0,0,1,0,0,0,0,0,0,0,0,0,0,0,0,0,0,0,0,0,0,0,0,0],"split_type":[0,0,0,0,0,0,0,0,0,0,0,0,0,0,0,0,0,0,0,0,0,0,0,0,0,0,0,0,0,0,0,0,0,0,0,0,0,0,0,0,0,0,0,0,0,0,0,0,0,0,0,0,0,0,0,0,0,0,0,0,0,0,0,0,0],"sum_hessian":[3.797668E5,3.0111662E5,7.865019E4,2.2295756E5,7.815907E4,7.8614664E4,3.5517338E1,1.4332702E5,7.963055E4,7.794718E4,2.11891E2,7.8499984E4,1.1468269E2,1.8510822E1,1.7006514E1,1.0876337E5,3.456364E4,4.828766E3,7.480178E4,7.793579E4,1.1388974E1,2.0133076E2,1.0560239E1,7.849808E4,1.9044473E0,1.9595137E1,9.5087555E1,1.5899665E1,1.1068497E0,4.0221406E4,6.854196E4,1.7635643E4,1.6928E4,1.0468044E3,3.7819617E3,7.356313E4,1.2386432E3,3.0071127E0,7.793278E4,1.0372955E1,1.016018E0,1.1151317E0,9.445107E0,1.1555299E1,8.039839E0,3.1227271E4,8.994135E3,6.785883E4,6.831344E2,7.9920864E3,9.643557E3,1.5597555E4,1.3304441E3,9.6258264E2,8.422186E1,4.026466E2,3.3793152E3,6.881143E4,4.7517085E3,1.1764691E3,6.2174065E1,7.725473E4,6.7805273E2,2.5646756E0,8.990623E0],"tree_param":{"num_deleted":"0","num_feature":"53","num_nodes":"65","size_leaf_vector":"1"}},{"base_weights":[1.7225761E-4,2.8511086E-1,-1.1076931E0,3.1500352E-3,1.1058266E0,-1.1081519E0,-9.713706E-2,4.6412015E-1,-8.2764554E-1,1.111557E0,-9.928631E-1,-1.1081836E0,1.5145532E-3,-1.0531449E-1,9.386494E-1,7.70858E-1,-4.7966936E-1,5.146078E-1,-9.140631E-1,1.1118759E0,-9.4246644E-1,-1.1152452E-1,1.143833E0,-1.1084473E-1,-9.201332E-1,6.5095626E-2,-6.498416E-2,1.04470275E-1,-3.0070594E-2,2.8727987E-1,1.063513E0,2.0915806E-2,-1.0050621E0,-8.719822E-1,9.050893E-1,2.3058647E-1,-9.70669E-1,-1.4606944E-1,1.1120024E0,-1.11552194E-1,4.4403687E-2,7.038397E-3,1.2572919E-1,-1.010978E0,6.824161E-1,6.7199335E-2,-1.10944785E-1,1.0846927E-1,-1.0143223E-1,7.480899E-2,-5.532485E-2,-1.118469E-1,6.82817E-3,1.1741879E-1,-1.0685044E-1,-3.5694834E-2,1.06773786E-1,9.896209E-2,-1.115584E-1,1.4386158E-1,-9.845942E-2,1.1106966E-1,1.2564962E-1,-1.7731976E-2,-1.0884824E-1,9.822175E-2,-4.312847E-2],"categories":[],"categories_nodes":[],"categories_segments":[],"categories_sizes":[],"default_left":[0,0,0,0,0,0,0,0,0,0,0,0,0,0,0,0,0,0,0,0,0,0,0,0,0,0,0,0,0,0,0,0,0,0,0,0,0,0,0,0,0,0,0,0,0,0,0,0,0,0,0,0,0,0,0,0,0,0,0,0,0,0,0,0,0,0,0],"id":16,"left_children":[1,3,5,7,9,11,13,15,17,19,21,23,25,-1,27,29,31,33,35,37,39,-1,41,-1,43,-1,-1,-1,-1,45,47,49,51,53,55,57,59,-1,61,-1,-1,-1,-1,63,65,-1,-1,-1,-1,-1,-1,-1,-1,-1,-1,-1,-1,-1,-1,-1,-1,-1,-1,-1,-1,-1,-1],"loss_changes":[1.1102618E5,6.4738945E4,3.3257812E1,7.974434E4,8.614219E2,2.546875E0,3.440808E1,3.8769484E4,8.619508E3,4.778125E1,5.235121E1,2.546875E0,1.7164532E0,0E0,2.5127974E0,1.43034375E4,8.639502E3,2.434687E3,4.523586E3,2.4835938E1,3.2826767E0,0E0,1.260355E0,0E0,1.6207115E1,0E0,0E0,0E0,0E0,2.0477234E4,2.7720547E3,7.0242046E3,1.9510205E3,3.9865326E2,7.204595E2,3.3632825E3,2.2332188E3,0E0,1.20625E1,0E0,0E0,0E0,0E0,6.3503647E0,2.5321302E0,0E0,0E0,0E0,0E0,0E0,0E0,0E0,0E0,0E0,0E0,0E0,0E0,0E0,0E0,0E0,0E0,0E0,0E0,0E0,0E0,0E0,0E0],"parents":[2147483647,0,0,1,1,2,2,3,3,4,4,5,5,6,6,7,7,8,8,9,9,10,10,11,11,12,12,14,14,15,15,16,16,17,17,18,18,19,19,20,20,22,22,24,24,29,29,30,30,31,31,32,32,33,33,34,34,35,35,36,36,38,38,43,43,44,44],"right_children":[2,4,6,8,10,12,14,16,18,20,22,24,26,-1,28,30,32,34,36,38,40,-1,42,-1,44,-1,-1,-1,-1,46,48,50,52,54,56,58,60,-1,62,-1,-1,-1,-1,64,66,-1,-1,-1,-1,-1,-1,-1,-1,-1,-1,-1,-1,-1,-1,-1,-1,-1,-1,-1,-1,-1,-1],"split_conditions":[-2.6261482E-1,1.3823552E0,3.3956167E-1,-5.547756E-1,-4.3626988E-1,2.800395E0,2.584639E-1,1.5854619E-3,-4.3878707E-1,-8.201566E-4,3.2920482E0,1.6723766E0,-4.3626988E-1,-1.0531449E-1,-4.3960893E-1,-4.65916E-1,-4.3626988E-1,-1.19004E-1,-2.7849746E-1,-5.5961637E-3,-5.504971E-2,-1.1152452E-1,5.661119E-1,-1.1084473E-1,-5.501617E-2,6.5095626E-2,-6.498416E-2,1.04470275E-1,-3.0070594E-2,-4.3626988E-1,-2.328798E-1,-2.850792E-1,1.2392891E-3,-2.5813335E-1,-5.506597E-2,-4.3626988E-1,-5.435684E-1,-1.4606944E-1,-1.1846885E-1,-1.11552194E-1,4.4403687E-2,7.038397E-3,1.2572919E-1,4.8063052E-1,-4.479316E-2,6.7199335E-2,-1.10944785E-1,1.0846927E-1,-1.0143223E-1,7.480899E-2,-5.532485E-2,-1.118469E-1,6.82817E-3,1.1741879E-1,-1.0685044E-1,-3.5694834E-2,1.06773786E-1,9.896209E-2,-1.115584E-1,1.4386158E-1,-9.845942E-2,1.1106966E-1,1.2564962E-1,-1.7731976E-2,-1.0884824E-1,9.822175E-2,-4.312847E-2],"split_indices":[11,13,14,46,0,9,10,31,0,5,37,12,0,0,1,35,0,24,15,5,19,0,6,0,19,0,0,0,0,0,9,16,30,32,19,0,36,0,24,0,0,0,0,46,19,0,0,0,0,0,0,0,0,0,0,0,0,0,0,0,0,0,0,0,0,0,0],"split_type":[0,0,0,0,0,0,0,0,0,0,0,0,0,0,0,0,0,0,0,0,0,0,0,0,0,0,0,0,0,0,0,0,0,0,0,0,0,0,0,0,0,0,0,0,0,0,0,0,0,0,0,0,0,0,0,0,0,0,0,0,0,0,0,0,0,0,0],"sum_hessian":[3.5170997E5,2.7975806E5,7.195193E4,2.0822303E5,7.1535016E4,7.191918E4,3.274962E1,1.3391836E5,7.430468E4,7.1340695E4,1.9432251E2,7.191712E4,2.0576365E0,1.7021965E1,1.5727653E1,1.0107009E5,3.2848266E4,4.494249E3,6.981043E4,7.133008E4,1.0616736E1,1.8424754E2,1.0074975E1,7.181153E4,1.0558655E2,1.0306396E0,1.0269967E0,1.4632582E1,1.0950704E0,3.810615E4,6.296395E4,1.682175E4,1.6026516E4,9.872645E2,3.5069844E3,3.28948E3,6.6520945E4,2.9399636E0,7.132714E4,9.6124115E0,1.0043246E0,1.1179798E0,8.956995E0,1.0027153E2,5.315016E0,2.9877293E4,8.228855E3,6.2329098E4,6.348519E2,7.421801E3,9.399949E3,1.449497E4,1.5315455E3,8.607584E1,9.0118866E2,4.002365E2,3.106748E3,2.103623E3,1.185857E3,3.8168265E2,6.6139266E4,7.069692E4,6.3021857E2,8.808865E0,9.146267E1,4.2807293E0,1.0342863E0],"tree_param":{"num_deleted":"0","num_feature":"53","num_nodes":"67","size_leaf_vector":"1"}},{"base_weights":[1.5875482E-4,2.7766392E-1,-1.0962762E0,3.0446437E-3,1.0939583E0,-1.0967342E0,-9.598522E-2,4.4863945E-1,-8.0271024E-1,1.0996332E0,-9.7973156E-1,-1.0970157E0,-8.9886963E-1,-1.0372062E-1,9.1806275E-1,7.4928755E-1,-4.5645443E-1,5.0038296E-1,-8.865183E-1,1.0999529E0,-9.1425306E-1,-1.10338114E-1,1.0932561E0,-1.0970491E-1,6.5066377E-3,-5.394716E-2,-1.0872693E-1,1.02817886E-1,-2.8665079E-2,2.7254876E-1,1.0475051E0,7.988509E-3,-9.977691E-1,-1.5462857E0,7.5253004E-1,2.207827E-1,-9.41725E-1,-1.380327E-1,1.1000829E0,-1.0899122E-1,3.2145437E-2,6.65797E-3,1.2078687E-1,3.7493828E-1,-9.536246E-2,-1.2404312E-1,6.2244277E-2,1.0684979E-1,-9.86024E-2,-2.8428907E-2,1.1976712E-1,-1.100596E-1,1.1104237E-3,-1.24391906E-1,-3.0177438E-1,-4.105861E-2,1.0995755E-1,9.374559E-2,-1.1032363E-1,1.3792719E-1,-9.552946E-2,1.10015765E-1,-1.0447607E-1,8.32828E-2,-5.9024066E-2],"categories":[],"categories_nodes":[],"categories_segments":[],"categories_sizes":[],"default_left":[0,0,0,0,0,0,0,0,0,0,0,0,0,0,0,0,0,0,0,0,0,0,0,0,0,0,0,0,0,0,0,0,0,0,0,0,0,0,0,0,0,0,0,0,0,0,0,0,0,0,0,0,0,0,0,0,0,0,0,0,0,0,0,0,0],"id":17,"left_children":[1,3,5,7,9,11,13,15,17,19,21,23,25,-1,27,29,31,33,35,37,39,-1,41,-1,-1,43,-1,-1,-1,45,47,49,51,53,55,57,59,-1,61,-1,-1,-1,-1,63,-1,-1,-1,-1,-1,-1,-1,-1,-1,-1,-1,-1,-1,-1,-1,-1,-1,-1,-1,-1,-1],"loss_changes":[9.904696E4,5.823447E4,3.0007812E1,6.97921E4,7.7064844E2,2.6796875E0,3.0713884E1,3.4059938E4,7.5598203E3,4.2984375E1,4.708922E1,2.6328125E0,1.568811E1,0E0,2.3563547E0,1.3357738E4,7.846622E3,2.160065E3,3.975918E3,2.2554688E1,2.7151651E0,0E0,1.1643515E0,0E0,0E0,7.7228756E0,0E0,0E0,0E0,1.9142021E4,2.4685078E3,5.8416323E3,1.4951543E3,2.0054834E2,1.504157E3,2.932484E3,1.9523672E3,0E0,1.159375E1,0E0,0E0,0E0,0E0,6.5214357E0,0E0,0E0,0E0,0E0,0E0,0E0,0E0,0E0,0E0,0E0,0E0,0E0,0E0,0E0,0E0,0E0,0E0,0E0,0E0,0E0,0E0],"parents":[2147483647,0,0,1,1,2,2,3,3,4,4,5,5,6,6,7,7,8,8,9,9,10,10,11,11,12,12,14,14,15,15,16,16,17,17,18,18,19,19,20,20,22,22,25,25,29,29,30,30,31,31,32,32,33,33,34,34,35,35,36,36,38,38,43,43],"right_children":[2,4,6,8,10,12,14,16,18,20,22,24,26,-1,28,30,32,34,36,38,40,-1,42,-1,-1,44,-1,-1,-1,46,48,50,52,54,56,58,60,-1,62,-1,-1,-1,-1,64,-1,-1,-1,-1,-1,-1,-1,-1,-1,-1,-1,-1,-1,-1,-1,-1,-1,-1,-1,-1,-1],"split_conditions":[-2.6261482E-1,1.3823552E0,3.3956167E-1,-5.547756E-1,-4.3626988E-1,1.6723766E0,2.584639E-1,1.5854619E-3,-4.3878707E-1,-8.201566E-4,3.2920482E0,2.800395E0,-5.2392356E-2,-1.0372062E-1,-4.3960893E-1,-4.65916E-1,-4.2718607E-1,-4.5437652E-1,-2.7849746E-1,-5.5961637E-3,-5.5057164E-2,-1.10338114E-1,5.661119E-1,-1.0970491E-1,6.5066377E-3,-4.3626988E-1,-1.0872693E-1,1.02817886E-1,-2.8665079E-2,1.2385295E-3,-2.328798E-1,5.2290087E0,1.2392891E-3,-4.3161038E-1,-5.506597E-2,-4.3626988E-1,-5.435684E-1,-1.380327E-1,1.0190203E0,-1.0899122E-1,3.2145437E-2,6.65797E-3,1.2078687E-1,-5.4380484E-2,-9.536246E-2,-1.2404312E-1,6.2244277E-2,1.0684979E-1,-9.86024E-2,-2.8428907E-2,1.1976712E-1,-1.100596E-1,1.1104237E-3,-1.24391906E-1,-3.0177438E-1,-4.105861E-2,1.0995755E-1,9.374559E-2,-1.1032363E-1,1.3792719E-1,-9.552946E-2,1.10015765E-1,-1.0447607E-1,8.32828E-2,-5.9024066E-2],"split_indices":[11,13,14,46,0,12,10,31,0,5,37,9,4,0,1,35,0,37,15,5,19,0,6,0,0,0,0,0,0,30,9,39,30,20,19,0,36,0,9,0,0,0,0,14,0,0,0,0,0,0,0,0,0,0,0,0,0,0,0,0,0,0,0,0,0],"split_type":[0,0,0,0,0,0,0,0,0,0,0,0,0,0,0,0,0,0,0,0,0,0,0,0,0,0,0,0,0,0,0,0,0,0,0,0,0,0,0,0,0,0,0,0,0,0,0,0,0,0,0,0,0,0,0,0,0,0,0,0,0,0,0,0,0],"sum_hessian":[3.2552516E5,2.5977694E5,6.5748195E4,1.9438319E5,6.539375E4,6.5718016E4,3.0182228E1,1.25165305E5,6.921789E4,6.5215746E4,1.7800357E2,6.562009E4,9.792236E1,1.5641361E1,1.4540867E1,9.395584E4,3.1209459E4,4.1824194E3,6.5035473E4,6.520585E4,9.894559E0,1.6842508E2,9.57849E0,6.561826E4,1.8349655E0,1.8088148E1,7.983421E1,1.3457343E1,1.0835232E0,3.6156684E4,5.779916E4,1.6797955E4,1.4411504E4,4.5818832E2,3.7242312E3,3.0883494E3,6.1947125E4,2.8622406E0,6.520299E4,8.76638E0,1.1281792E0,1.1206697E0,8.457821E0,1.2643917E1,5.444232E0,6.790645E3,2.936604E4,5.7209047E4,5.9011346E2,1.3485613E4,3.3123425E3,1.3078428E4,1.3330759E3,3.8161618E2,7.6572136E1,8.558119E2,2.8684192E3,2.0039376E3,1.0844117E3,3.594793E2,6.1587645E4,6.5201207E4,1.7843779E0,8.668586E0,3.9753306E0],"tree_param":{"num_deleted":"0","num_feature":"53","num_nodes":"65","size_leaf_vector":"1"}},{"base_weights":[1.8885874E-4,2.6999512E-1,-1.0861568E0,3.0076997E-3,1.08345E0,-1.0866618E0,-1.7861041E-1,4.322027E-1,-7.777513E-1,1.0890769E0,-9.677389E-1,-1.0866976E0,2.6431272E-4,-1.0364932E-1,8.994739E-1,7.258182E-1,-4.3235987E-1,-3.0287874E-1,-1.0049131E0,1.0894469E0,-6.730469E-1,-1.09276116E-1,1.0480008E0,-1.0869443E-1,-9.096279E-1,1.0633776E-1,-7.073826E-2,2.5619414E-1,1.0322989E0,8.242314E-3,-9.783503E-1,-4.7476503E-1,1.297331E0,-1.0435412E0,-5.4773664E-1,-1.3084994E-1,1.0895807E0,-1.1528214E-1,4.1888767E-1,6.298184E-3,1.16446786E-1,-9.9142265E-1,5.9614426E-1,6.1300427E-2,-1.0941799E-1,1.053129E-1,-9.5806435E-2,4.4817556E-2,-7.433147E-2,-1.0885483E-1,9.992196E-4,-6.2710315E-2,8.338496E-2,1.3368808E-1,-1.1876722E-1,-1.0719975E-1,-4.521076E-2,-3.0234182E-2,-1.0925341E-1,1.0896454E-1,-1.3272299E-1,8.71472E-2,-5.766928E-2,-2.6079167E-2,-1.0614361E-1,8.805803E-2,-1.7773516E-2],"categories":[],"categories_nodes":[],"categories_segments":[],"categories_sizes":[],"default_left":[0,0,0,0,0,0,0,0,0,0,0,0,0,0,0,0,0,0,0,0,0,0,0,0,0,0,0,0,0,0,0,0,0,0,0,0,0,0,0,0,0,0,0,0,0,0,0,0,0,0,0,0,0,0,0,0,0,0,0,0,0,0,0,0,0,0,0],"id":18,"left_children":[1,3,5,7,9,11,13,15,17,19,21,23,-1,-1,25,27,29,31,33,35,37,-1,39,-1,41,-1,-1,43,45,47,49,51,53,55,57,-1,59,-1,61,-1,-1,63,65,-1,-1,-1,-1,-1,-1,-1,-1,-1,-1,-1,-1,-1,-1,-1,-1,-1,-1,-1,-1,-1,-1,-1,-1],"loss_changes":[8.842231E4,5.248386E4,2.7304688E1,6.0969113E4,6.9028125E2,2.3515625E0,3.2902306E1,2.9803432E4,6.9617305E3,3.95625E1,4.244847E1,1.625E0,0E0,0E0,4.9274263E0,1.2614027E4,7.1603E3,5.7450693E3,7.703789E2,2.053125E1,7.356876E0,0E0,1.0832863E0,0E0,1.1621811E1,0E0,0E0,1.6676984E4,2.199668E3,5.446878E3,1.4477471E3,3.7602588E3,2.0070703E2,6.7698047E2,4.546587E2,0E0,1.0765625E1,0E0,2.6378078E0,0E0,0E0,4.087784E0,1.3096905E0,0E0,0E0,0E0,0E0,0E0,0E0,0E0,0E0,0E0,0E0,0E0,0E0,0E0,0E0,0E0,0E0,0E0,0E0,0E0,0E0,0E0,0E0,0E0,0E0],"parents":[2147483647,0,0,1,1,2,2,3,3,4,4,5,5,6,6,7,7,8,8,9,9,10,10,11,11,14,14,15,15,16,16,17,17,18,18,19,19,20,20,22,22,24,24,27,27,28,28,29,29,30,30,31,31,32,32,33,33,34,34,36,36,38,38,41,41,42,42],"right_children":[2,4,6,8,10,12,14,16,18,20,22,24,-1,-1,26,28,30,32,34,36,38,-1,40,-1,42,-1,-1,44,46,48,50,52,54,56,58,-1,60,-1,62,-1,-1,64,66,-1,-1,-1,-1,-1,-1,-1,-1,-1,-1,-1,-1,-1,-1,-1,-1,-1,-1,-1,-1,-1,-1,-1,-1],"split_conditions":[-2.6261482E-1,1.3823552E0,2.2776586E-1,-5.547756E-1,-4.3626988E-1,2.800395E0,2.584639E-1,1.5854619E-3,-4.3626988E-1,-4.0481103E-4,3.2920482E0,1.6723766E0,2.6431272E-4,-1.0364932E-1,-4.3960714E-1,-4.65916E-1,-4.2718607E-1,4.5336084E0,3.017061E-1,-5.5961637E-3,9.8664634E-2,-1.09276116E-1,5.661119E-1,-1.0869443E-1,-5.501617E-2,1.0633776E-1,-7.073826E-2,-4.3626988E-1,-2.328798E-1,-1.1734178E-1,1.2392891E-3,8.34516E-2,-7.158127E-3,-1.16407946E-1,2.5195725E0,-1.3084994E-1,1.1893907E0,-1.1528214E-1,5.661119E-1,6.298184E-3,1.16446786E-1,4.8063052E-1,-4.7158517E-2,6.1300427E-2,-1.0941799E-1,1.053129E-1,-9.5806435E-2,4.4817556E-2,-7.433147E-2,-1.0885483E-1,9.992196E-4,-6.2710315E-2,8.338496E-2,1.3368808E-1,-1.1876722E-1,-1.0719975E-1,-4.521076E-2,-3.0234182E-2,-1.0925341E-1,1.0896454E-1,-1.3272299E-1,8.71472E-2,-5.766928E-2,-2.6079167E-2,-1.0614361E-1,8.805803E-2,-1.7773516E-2],"split_indices":[11,13,14,46,0,9,10,31,0,3,37,12,0,0,1,35,0,40,33,5,8,0,6,0,19,0,0,0,9,24,30,23,2,29,0,0,9,0,6,0,0,46,19,0,0,0,0,0,0,0,0,0,0,0,0,0,0,0,0,0,0,0,0,0,0,0,0],"split_type":[0,0,0,0,0,0,0,0,0,0,0,0,0,0,0,0,0,0,0,0,0,0,0,0,0,0,0,0,0,0,0,0,0,0,0,0,0,0,0,0,0,0,0,0,0,0,0,0,0,0,0,0,0,0,0,0,0,0,0,0,0,0,0,0,0,0,0],"sum_hessian":[3.0167472E5,2.4165717E5,6.0017543E4,1.8194219E5,5.9714996E4,5.9983977E4,3.3567028E1,1.1740392E5,6.4538258E4,5.95521E4,1.6289388E2,5.9982004E4,1.9718916E0,1.8713995E1,1.4853033E1,8.764039E4,2.9763533E4,2.088381E4,4.365445E4,5.953998E4,1.2121215E1,1.5381189E2,9.081986E0,5.989344E4,8.856158E1,1.3785136E1,1.0678968E0,3.460957E4,5.3030816E4,1.6471988E4,1.3291545E4,1.8858799E4,2.0250118E3,4.025215E4,3.4023015E3,2.7767262E0,5.9537203E4,8.382395E0,3.7388198E0,1.1232105E0,7.958776E0,8.432269E1,4.23889E0,2.7376428E4,7.233144E3,5.2482043E4,5.4877625E2,1.0390301E4,6.081688E3,1.1958138E4,1.3334069E3,1.6892799E4,1.9659991E3,1.9937427E3,3.1269209E1,3.840358E4,1.8485686E3,2.3467864E3,1.0555151E3,5.953616E4,1.0459392E0,2.6560545E0,1.0827653E0,7.786884E0,7.6535805E1,2.9988115E0,1.2400784E0],"tree_param":{"num_deleted":"0","num_feature":"53","num_nodes":"67","size_leaf_vector":"1"}},{"base_weights":[9.703298E-5,2.6238158E-1,-1.0771543E0,2.7705317E-3,1.0741044E0,-1.0776587E0,-1.7728063E-1,4.1684186E-1,-7.51204E-1,1.0796893E0,-9.5669186E-1,-1.0776976E0,2.4678174E-4,-1.0231884E-1,8.7920284E-1,7.0480376E-1,-4.0994075E-1,-2.8182942E-1,-9.871888E-1,1.0800632E0,-6.534651E-1,-1.08320296E-1,1.0069685E0,-1.077966E-1,-8.880887E-1,1.04712486E-1,-6.8334796E-2,2.4239984E-1,1.0176784E0,1.9696714E-2,-9.4477636E-1,-4.4024003E-1,1.2665855E0,-1.0285987E0,-5.171841E-1,-1.2438474E-1,1.080201E0,-1.12588786E-1,3.9899096E-1,1.3600771E-2,1.1493746E-1,-1.0482684E-1,-1.06574535E-1,-1.2331154E-1,5.672835E-2,1.03836596E-1,-9.30255E-2,-3.2779124E-2,9.293199E-2,-1.08330965E-1,5.740902E-3,-6.003325E-2,7.017369E-2,1.3050269E-1,-1.1748176E-1,-1.0600002E-1,-4.173046E-2,-2.790599E-2,-1.0827611E-1,1.0802885E-1,-9.0558894E-2,8.389517E-2,-5.6070168E-2,4.254758E-2,-1.10266045E-1],"categories":[],"categories_nodes":[],"categories_segments":[],"categories_sizes":[],"default_left":[0,0,0,0,0,0,0,0,0,0,0,0,0,0,0,0,0,0,0,0,0,0,0,0,0,0,0,0,0,0,0,0,0,0,0,0,0,0,0,0,0,0,0,0,0,0,0,0,0,0,0,0,0,0,0,0,0,0,0,0,0,0,0,0,0],"id":19,"left_children":[1,3,5,7,9,11,13,15,17,19,21,23,-1,-1,25,27,29,31,33,35,37,-1,39,-1,41,-1,-1,43,45,47,49,51,53,55,57,-1,59,-1,61,-1,-1,63,-1,-1,-1,-1,-1,-1,-1,-1,-1,-1,-1,-1,-1,-1,-1,-1,-1,-1,-1,-1,-1,-1,-1],"loss_changes":[7.898778E4,4.737659E4,2.4648438E1,5.3180543E4,6.1891797E2,2.3085938E0,2.9370949E1,2.6178744E4,6.6883867E3,3.5910156E1,3.834012E1,1.8242188E0,0E0,0E0,4.5736284E0,1.1798273E4,6.526957E3,4.95633E3,7.8154297E2,1.8742188E1,6.585467E0,0E0,1.0335894E0,0E0,1.1438599E1,0E0,0E0,1.577816E4,1.9610742E3,4.9793438E3,1.7567793E3,3.3514932E3,1.775415E2,7.0841406E2,4.3816357E2,0E0,1.0425781E1,0E0,2.3965454E0,0E0,0E0,9.176528E0,0E0,0E0,0E0,0E0,0E0,0E0,0E0,0E0,0E0,0E0,0E0,0E0,0E0,0E0,0E0,0E0,0E0,0E0,0E0,0E0,0E0,0E0,0E0],"parents":[2147483647,0,0,1,1,2,2,3,3,4,4,5,5,6,6,7,7,8,8,9,9,10,10,11,11,14,14,15,15,16,16,17,17,18,18,19,19,20,20,22,22,24,24,27,27,28,28,29,29,30,30,31,31,32,32,33,33,34,34,36,36,38,38,41,41],"right_children":[2,4,6,8,10,12,14,16,18,20,22,24,-1,-1,26,28,30,32,34,36,38,-1,40,-1,42,-1,-1,44,46,48,50,52,54,56,58,-1,60,-1,62,-1,-1,64,-1,-1,-1,-1,-1,-1,-1,-1,-1,-1,-1,-1,-1,-1,-1,-1,-1,-1,-1,-1,-1,-1,-1],"split_conditions":[-2.6261482E-1,1.3823552E0,2.2776586E-1,-5.547756E-1,-4.3626988E-1,2.800395E0,2.584639E-1,1.5854619E-3,-4.3626988E-1,-4.0481103E-4,3.2920482E0,1.6723766E0,2.4678174E-4,-1.0231884E-1,-4.3960714E-1,-4.65916E-1,-4.3626988E-1,4.5336084E0,3.017061E-1,-5.5961637E-3,9.8664634E-2,-1.08320296E-1,3.0745392E0,-1.077966E-1,-5.2392356E-2,1.04712486E-1,-6.8334796E-2,1.2385295E-3,-2.328798E-1,-5.653186E-1,1.2392891E-3,7.670307E-1,-7.158127E-3,-1.16407946E-1,2.5195725E0,-1.2438474E-1,1.0190203E0,-1.12588786E-1,5.661119E-1,1.3600771E-2,1.1493746E-1,-5.4380484E-2,-1.06574535E-1,-1.2331154E-1,5.672835E-2,1.03836596E-1,-9.30255E-2,-3.2779124E-2,9.293199E-2,-1.08330965E-1,5.740902E-3,-6.003325E-2,7.017369E-2,1.3050269E-1,-1.1748176E-1,-1.0600002E-1,-4.173046E-2,-2.790599E-2,-1.0827611E-1,1.0802885E-1,-9.0558894E-2,8.389517E-2,-5.6070168E-2,4.254758E-2,-1.10266045E-1],"split_indices":[11,13,14,46,0,9,10,31,0,3,37,12,0,0,1,35,0,40,33,5,8,0,1,0,4,0,0,30,9,46,30,13,2,29,0,0,9,0,6,0,0,14,0,0,0,0,0,0,0,0,0,0,0,0,0,0,0,0,0,0,0,0,0,0,0],"split_type":[0,0,0,0,0,0,0,0,0,0,0,0,0,0,0,0,0,0,0,0,0,0,0,0,0,0,0,0,0,0,0,0,0,0,0,0,0,0,0,0,0,0,0,0,0,0,0,0,0,0,0,0,0,0,0,0,0,0,0,0,0,0,0,0,0],"sum_hessian":[2.7955488E5,2.2481792E5,5.473695E4,1.7033966E5,5.4478254E4,5.470609E4,3.0858292E1,1.0995468E5,6.0384984E4,5.4329312E4,1.4894226E2,5.470412E4,1.9718904E0,1.7154501E1,1.3703792E1,8.155119E4,2.8403492E4,2.0203111E4,4.0181875E4,5.4317973E4,1.1341502E1,1.4034853E2,8.593737E0,5.4622113E4,8.200528E1,1.2671853E1,1.0319388E0,3.291185E4,4.8639336E4,1.575131E4,1.2652182E4,1.8328709E4,1.8744031E3,3.6927203E4,3.2546704E3,2.685635E0,5.4315285E4,7.779635E0,3.5618672E0,1.4823996E0,7.111337E0,1.5455279E1,6.655E1,5.9384697E3,2.697338E4,4.8128664E4,5.1067294E2,1.1397829E4,4.35348E3,1.1115581E4,1.5366013E3,1.6075566E4,2.253141E3,1.8458052E3,2.8597887E1,3.512228E4,1.8049224E3,2.291413E3,9.6325745E2,5.4313348E4,1.9397701E0,2.528511E0,1.0333564E0,1.0466446E1,4.9888334E0],"tree_param":{"num_deleted":"0","num_feature":"53","num_nodes":"65","size_leaf_vector":"1"}},{"base_weights":[3.830492E-5,2.5437984E-1,-1.069139E0,2.5848972E-3,1.0657682E0,-1.0696435E0,-1.7608885E-1,4.0078545E-1,-7.22953E-1,1.0713173E0,-9.461285E-1,-1.0696859E0,2.3041049E-4,-1.010494E-1,8.594239E-1,6.817647E-1,-3.87657E-1,-2.5995088E-1,-9.698081E-1,1.0716958E0,-6.347958E-1,-1.07455015E-1,9.6665454E-1,-1.0699729E-1,-8.6987746E-1,1.0260295E-1,-3.005504E-2,2.2726507E-1,1.0034536E0,7.2068963E-3,-9.411806E-1,-4.043228E-1,1.2387131E0,-1.0142273E0,-4.8740056E-1,-1.1852982E-1,1.0718378E0,-1.10022746E-1,3.7995428E-1,2.9167586E-3,1.0941126E-1,-1.0142321E-1,-1.0561303E-1,-1.2120447E-1,5.284018E-2,1.0240158E-1,-9.024473E-2,2.7651155E-2,-1.0994283E-1,-1.0677121E-1,3.2471653E-4,-5.4847628E-2,8.038837E-2,1.2761779E-1,-1.16229706E-1,-1.0488569E-1,-3.844098E-2,-2.5711302E-2,-1.074054E-1,1.07193254E-1,-8.10965E-2,7.01125E-2,-3.154523E-2,3.9009713E-2,-1.0594713E-1],"categories":[],"categories_nodes":[],"categories_segments":[],"categories_sizes":[],"default_left":[0,0,0,0,0,0,0,0,0,0,0,0,0,0,0,0,0,0,0,0,0,0,0,0,0,0,0,0,0,0,0,0,0,0,0,0,0,0,0,0,0,0,0,0,0,0,0,0,0,0,0,0,0,0,0,0,0,0,0,0,0,0,0,0,0],"id":20,"left_children":[1,3,5,7,9,11,13,15,17,19,21,23,-1,-1,25,27,29,31,33,35,37,-1,39,-1,41,-1,-1,43,45,47,49,51,53,55,57,-1,59,-1,61,-1,-1,63,-1,-1,-1,-1,-1,-1,-1,-1,-1,-1,-1,-1,-1,-1,-1,-1,-1,-1,-1,-1,-1,-1,-1],"loss_changes":[7.058633E4,4.2839953E4,2.2289062E1,4.6233977E4,5.554258E2,2.2695312E0,2.623763E1,2.2889879E4,6.4810312E3,3.2664062E1,3.472232E1,1.9296875E0,0E0,0E0,2.944827E0,1.113725E4,5.933538E3,4.267515E3,7.920625E2,1.7144531E1,5.90228E0,0E0,1.0618486E0,0E0,1.0891235E1,0E0,0E0,1.3684917E4,1.748957E3,4.722625E3,1.3507041E3,3.1335742E3,1.5738501E2,7.3825E2,4.2129083E2,0E0,9.691406E0,0E0,1.202672E0,0E0,0E0,7.993627E0,0E0,0E0,0E0,0E0,0E0,0E0,0E0,0E0,0E0,0E0,0E0,0E0,0E0,0E0,0E0,0E0,0E0,0E0,0E0,0E0,0E0,0E0,0E0],"parents":[2147483647,0,0,1,1,2,2,3,3,4,4,5,5,6,6,7,7,8,8,9,9,10,10,